<?xml version="1.0"?>
<opencv_storage>
    <opencv_ml_svm>
        <format>3</format>
        <svmType>C_SVC</svmType>
        <kernel>
            <type>LINEAR</type>
        </kernel>
        <C>1.0000000000000001e-01</C>
        <term_criteria>
            <iterations>100</iterations>
        </term_criteria>
        <var_count>722</var_count>
        <class_count>2</class_count>
        <class_labels type_id="opencv-matrix">
            <rows>2</rows>
            <cols>1</cols>
            <dt>i</dt>
            <data>
                0 1
            </data>
        </class_labels>
        <sv_total>1</sv_total>
        <support_vectors>
            <_>
                3.22023152e-06 1.78863102e-05 -9.38628273e-06 1.97848858e-05
                4.43692124e-06 -3.98142674e-06 -1.18336800e-07 2.68051572e-05
                -6.45828948e-07 -2.57254796e-05 3.18490697e-06 -1.56863416e-06
                1.17585423e-05 -3.12748671e-06 -1.40665416e-05 6.33397894e-06
                -4.21990262e-05 8.11494647e-06 7.37931532e-06 -9.56839244e-07
                -5.73769430e-05 -1.75235273e-05 -4.32713250e-07 -3.26879466e-08
                -4.01726155e-08 1.79908293e-05 1.06487096e-05 4.79742303e-05
                -1.13593080e-06 -1.13593078e-05 -2.59820831e-06 -1.74524921e-05
                -3.39071016e-06 1.58366638e-05 1.08986105e-05 8.50389188e-06
                2.32020448e-05 -2.95159566e-06 1.32175119e-05 -1.19696388e-05
                3.31406554e-05 2.47431359e-07 -6.63812386e-07 7.10303652e-07
                -7.01983254e-07 2.42293754e-06 1.96658812e-06 -2.42293765e-07
                -8.58980172e-07 2.07187369e-07 -1.86409543e-05 -3.40056249e-06
                -2.32009097e-06 -4.30372347e-05 2.00201212e-05 1.19358892e-05
                1.52286802e-05 4.19800972e-06 -2.11071608e-07 -1.34389632e-06
                -2.54737897e-05 -6.53928510e-05 4.87272473e-07 -5.13121449e-07
                1.30189428e-05 1.37626841e-06 -8.29367366e-07 -2.18276045e-06
                2.90800690e-05 -1.96613385e-07 7.42465272e-06 -4.14817941e-06
                -2.71275876e-05 1.32513851e-05 1.10106430e-05 9.77580271e-07
                -9.77580271e-07 2.12407895e-06 7.18980345e-06 -3.83914340e-07
                -2.17856837e-06 2.83747431e-05 1.11601958e-05 2.55476170e-05
                -1.48084052e-06 -2.19161248e-05 -2.49213826e-06 2.61375208e-05
                -2.68625195e-06 3.46782908e-05 -9.83650807e-07 -4.69781469e-07
                -5.21457423e-06 2.75704369e-05 5.02575119e-08 -4.69626826e-07
                8.73233330e-06 -5.57858357e-06 9.27107067e-06 3.07150549e-05
                1.11857471e-05 -1.91278705e-05 -2.62162248e-05 -1.01413855e-06
                1.83523789e-05 -7.20300818e-07 -1.12259195e-05 7.06933633e-06
                1.84323380e-05 6.67912991e-06 3.21371942e-07 2.72492093e-06
                3.11151671e-05 2.48201195e-06 3.11396216e-05 2.72876719e-06
                1.46028387e-05 -4.52257200e-06 4.95432550e-06 8.94390996e-06
                -3.58252546e-05 6.25501980e-06 -5.00965143e-06 1.70381031e-06
                -3.79669677e-06 9.20374475e-07 7.58049453e-07 -5.01496179e-05
                -5.05727371e-07 2.15202431e-06 1.17867312e-05 5.26629701e-05
                -2.42318947e-06 3.75284471e-05 4.26816478e-05 2.04949447e-05
                -2.26899629e-05 -1.90432838e-05 -2.85557380e-05 -2.85557371e-06
                1.68872043e-06 1.85759245e-06 -1.03407763e-06 -9.40070549e-06
                1.04347828e-05 -1.04347828e-05 1.85759254e-05 1.68872043e-06
                4.80142080e-06 7.63190292e-06 4.60967567e-05 -5.11675080e-06
                -5.11675080e-06 1.30366800e-07 8.79192896e-09 -9.75904186e-07
                8.79192953e-07 -8.79192896e-08 -1.39570417e-07 -1.35557293e-05
                3.47171522e-06 3.40150473e-05 -2.63973948e-06 2.35684047e-06
                3.17632453e-06 2.91447094e-07 4.49946810e-06 1.70097028e-05
                3.32654417e-05 -2.24965388e-05 1.04710989e-06 -3.16425285e-05
                5.00948408e-05 -7.67189420e-07 -1.93181495e-05 -5.65471237e-06
                1.33522963e-05 -2.06334062e-06 8.44469287e-06 -3.59672995e-05
                -1.31556690e-05 -1.05326853e-05 -1.63667698e-06 1.39402273e-05
                1.71973306e-06 2.14796819e-05 -7.41626855e-06 -2.42537772e-06
                -2.42537772e-06 4.88118530e-05 -1.88756076e-05 2.35457520e-07
                1.22728522e-06 3.11648182e-05 -3.90409441e-05 -1.18612138e-06
                4.77996546e-05 -9.81053654e-06 -1.26411596e-05 -2.67701580e-05
                -8.70650183e-06 3.73554765e-21 2.06215591e-05 -2.98130976e-06
                -2.04357802e-05 2.16040007e-05 1.35325363e-05 -2.07423591e-06
                -2.09309273e-05 -2.09309273e-05 -1.61588764e-06 -8.33007380e-06
                1.28549837e-05 -6.14331339e-06 -3.17062113e-05 -2.57207284e-06
                -2.78427706e-07 -2.83670634e-05 2.39002202e-06 -1.40759357e-05
                1.26810232e-06 -2.67996199e-07 1.27600015e-05 -4.52129689e-06
                -3.28730348e-05 1.16267495e-06 -1.34489619e-05 -5.83597330e-06
                -6.69600195e-06 1.72790260e-05 5.22936898e-06 -1.53752244e-05
                -1.53752244e-05 -1.52367084e-05 1.38515531e-07 3.38775544e-06
                -3.49280563e-05 -2.06264986e-06 1.73894641e-05 3.07977757e-06
                1.13863771e-05 6.28769840e-06 1.80416555e-05 1.80416555e-05
                1.52982057e-06 7.40607720e-06 3.13311684e-05 7.48907610e-07
                -1.76347294e-06 4.08445885e-06 1.24628132e-05 9.89822456e-06
                -8.18534863e-06 1.19117440e-05 -2.75054106e-07 4.37701237e-06
                5.18180514e-07 4.58874820e-05 4.54740803e-06 1.17830741e-05
                1.82001077e-06 -7.71512168e-06 5.21798484e-07 -1.96399524e-05
                1.78545019e-06 5.29265265e-07 -2.02184056e-05 1.14524528e-05
                -6.30276327e-06 -8.56745737e-06 -2.75076236e-05 1.77874426e-05
                2.64157206e-05 7.82253119e-06 3.62444589e-05 8.65636139e-07
                -7.72325893e-06 5.32419608e-06 -2.39116125e-05 1.60391446e-05
                5.14436506e-05 6.04979277e-07 3.65146292e-07 3.56745795e-06
                -5.27894827e-06 -2.44144826e-06 -2.44144826e-06 -2.68559324e-06
                -2.68559324e-06 6.07455922e-06 6.17432488e-06 -1.47785986e-05
                1.49129501e-05 -1.49129501e-05 -2.46702075e-06 1.41722676e-05
                -1.41370074e-05 -3.86883694e-05 4.99959206e-05 -5.92900869e-05
                3.22179039e-05 8.37116022e-06 1.15598141e-05 1.29210021e-05
                -1.35213631e-05 -2.58575437e-06 2.03243762e-05 1.35511470e-07
                6.21800245e-06 -3.09091001e-06 -3.93783230e-05 6.40578673e-06
                6.08656046e-06 -2.43770337e-05 -1.20366867e-05 4.22242010e-06
                -6.41940616e-08 -1.67541521e-06 -6.40720009e-06 -3.40269798e-06
                3.59807473e-06 -1.71721570e-06 -4.45094665e-05 1.45877930e-05
                8.32145759e-07 -1.36131612e-05 -6.56807515e-07 -6.48306059e-06
                -1.55042435e-05 9.14597422e-06 -5.33089442e-05 -2.49760251e-05
                -7.89453793e-07 -8.76293780e-06 1.71271968e-05 -1.31649876e-05
                2.25218309e-06 3.77749961e-06 -4.19302451e-05 1.58853879e-06
                -1.45451082e-07 -2.30967271e-06 -2.56373660e-05 -1.07814094e-05
                8.07404376e-06 8.14082432e-06 2.65848757e-06 -7.72823660e-06
                7.36415404e-06 -4.00897916e-05 -6.39170776e-06 -2.66454822e-06
                -2.31286358e-05 5.66408562e-06 -2.90715252e-05 -2.34312265e-05
                2.25809854e-05 -2.60520693e-07 4.88860569e-05 2.08016118e-05
                -1.01473597e-05 -1.01473597e-05 9.14176553e-07 5.23369226e-06
                5.88630746e-06 -2.28358331e-05 -3.87005730e-06 -1.21330268e-05
                -2.15796554e-05 -2.29440320e-06 -1.05411564e-05 -1.28571415e-07
                1.71209267e-05 3.16388855e-06 4.56926318e-06 -1.26072373e-05
                -1.72871978e-06 -1.14823831e-06 -3.57962040e-06 -1.45958393e-06
                -3.25358701e-06 2.39600217e-06 2.35414677e-06 2.19310664e-06
                -2.14227621e-05 2.70136698e-05 2.74241629e-05 4.96653865e-06
                8.08970526e-06 1.54880381e-05 6.01109093e-07 1.13450124e-05
                1.42224071e-05 3.81778727e-06 -2.33975734e-05 -2.61121822e-05
                3.96176483e-06 -1.27410822e-05 -3.20019171e-06 5.90826858e-06
                1.49883535e-05 -6.56069733e-06 1.98062316e-05 -2.08640395e-05
                -7.69125052e-07 -5.18454648e-08 -5.68613041e-06 -3.52631423e-06
                -1.62276638e-06 1.62276638e-06 1.62276638e-06 -3.93637056e-05
                -1.67682765e-06 6.09765766e-06 1.99440433e-06 -8.44936636e-08
                -2.29177604e-05 1.14472925e-06 1.30805180e-08 1.26873874e-05
                1.40942657e-05 -2.00225913e-05 -1.30923299e-05 1.44039159e-05
                9.39703568e-06 -4.99831276e-06 -3.11023578e-05 2.55926949e-07
                -1.32698710e-06 -1.32698710e-06 2.51321262e-06 1.47295568e-05
                1.08129570e-05 1.58002549e-05 3.98230122e-06 1.60841701e-05
                1.60841701e-05 -2.02444039e-06 1.03815285e-06 1.29623159e-05
                -2.68862004e-05 -5.38443544e-07 1.68338938e-05 2.33231458e-05
                4.66129541e-06 9.01489420e-06 -1.75722180e-05 3.40038184e-07
                6.51230607e-07 -2.25501844e-06 -3.33873345e-07 2.01469516e-06
                -8.00727412e-06 -3.87320142e-05 2.79110136e-05 -1.76582525e-05
                -1.59083356e-06 1.66392892e-05 -3.19254241e-06 -7.16153500e-06
                -3.14704494e-06 -3.25279211e-06 3.25279211e-06 -3.99251235e-07
                2.20893457e-06 -3.51007329e-05 -2.26623129e-08 3.57348254e-05
                2.01781950e-05 5.68898713e-06 1.44540672e-05 -1.12417129e-05
                -8.23304617e-06 1.58124694e-05 2.31412614e-05 3.41219993e-06
                -2.58885649e-07 -1.09523353e-05 -1.08536660e-05 2.00668292e-05
                1.82425720e-05 -4.13951921e-06 -3.61060120e-05 1.19371844e-05
                -2.25645451e-07 1.37106217e-05 -3.77979050e-05 1.56839797e-05
                1.30998678e-05 1.23592627e-05 -1.38994210e-06 2.73287083e-06
                2.51401775e-06 2.41408816e-05 3.36639732e-06 -7.81583913e-06
                9.52912066e-20 1.28882939e-05 -9.66277821e-06 5.58793499e-06
                3.60474733e-05 3.24752023e-06 1.48968002e-05 -8.55075086e-06
                7.77340938e-06 1.74900492e-07 4.02874633e-07 1.90955852e-05
                -9.18612841e-06 6.79172945e-06 -7.24825350e-06 1.19476508e-05
                8.27965050e-06 8.27965050e-06 7.52700259e-07 1.17157015e-05
                -9.84784947e-06 -1.60275686e-05 1.44514925e-05 -1.89231305e-05
                2.18330251e-06 -1.49838215e-05 -7.54797202e-06 -2.94923393e-06
                -3.27364978e-05 -2.62509730e-07 -6.29784654e-06 2.03866930e-05
                -5.03868796e-06 -4.64673576e-07 1.26999828e-06 -5.54674807e-06
                -2.27815030e-06 7.06198171e-06 -9.62487832e-08 8.31199395e-06
                -8.96346606e-08 2.10558460e-06 6.38319477e-07 2.41234648e-05
                1.51264583e-08 3.00878082e-06 -1.33386357e-05 -9.39760776e-06
                -2.16256303e-05 3.91018075e-05 1.56409460e-05 -3.19600404e-05
                -1.28018937e-05 -4.75139677e-06 -1.46991158e-06 -1.41137498e-05
                -1.01819815e-05 -1.22077072e-05 1.26750565e-05 2.70663099e-06
                1.77792617e-06 2.66994575e-05 1.16110199e-09 -2.82936276e-06
                -1.28882320e-07 9.74212435e-06 -2.21336404e-06 -2.47639528e-05
                2.97083079e-06 -2.21308915e-06 2.22523227e-07 -1.28315787e-05
                -3.70741327e-05 -1.41177807e-05 -1.00652721e-06 -1.48202980e-05
                -5.76721550e-06 1.70257337e-07 -7.14038015e-06 -2.05698839e-07
                -6.20562205e-05 -1.44512825e-07 -1.23757354e-05 -9.73941042e-06
                -1.88694628e-06 -5.69910924e-07 2.13709081e-05 1.05691042e-05
                1.51711465e-05 9.23615104e-08 5.22534392e-05 2.39793244e-05
                1.48167908e-06 -2.52166737e-05 -2.73666828e-05 -1.40610814e-06
                -1.26258692e-06 1.32002087e-05 -1.62686490e-07 -3.28138412e-05
                -1.16534216e-06 2.19676076e-05 -6.93441791e-07 7.35882486e-06
                -7.89661897e-07 -1.17432023e-06 2.13486419e-05 9.08234506e-06
                1.51363906e-07 1.03855837e-05 1.17011655e-06 1.61080279e-05
                -2.76825426e-06 3.17277596e-07 -3.19743158e-05 -1.23157715e-05
                -1.70583880e-05 -5.32777676e-06 2.70018131e-06 3.54957810e-05
                -2.56733983e-05 -2.62439553e-05 -9.94516896e-08 -3.18432399e-06
                -1.53772953e-06 7.08289576e-07 -1.44687556e-05 -3.88698572e-06
                2.08420097e-05 -2.70478654e-06 2.55079408e-06 -8.27793519e-06
                -5.25488524e-08 -4.62247681e-06 8.83705161e-06 -8.75743808e-07
                -7.96130735e-07 7.96130735e-08 -2.95330437e-06 2.67775231e-05
                -6.75546062e-07 1.35279843e-05 3.31327537e-05 -9.22383947e-08
                1.15357216e-06 1.64579560e-05 3.28677629e-06 1.43815159e-05
                1.25332349e-06 -7.64208289e-06 -4.20137076e-06 3.11673502e-05
                -3.93402445e-07 1.02690447e-05 2.18498408e-05 -3.74714364e-05
                6.95851759e-06 -1.42282097e-05 -2.51645724e-05 -3.85542853e-06
                1.10010228e-06 -7.08800201e-07 -1.17975594e-06 -1.36350127e-05
                -2.99425483e-06 1.01384858e-05 -2.64419526e-07 -9.02537067e-06
                -4.66897177e-07 -3.28121632e-06 1.74443521e-05 4.31645603e-05
                1.80616807e-05 -9.29807084e-06 -5.17150374e-06 -1.10371657e-05
                -2.50046151e-06 6.81775737e-06 -6.51002665e-07 5.34249057e-06
                1.79057258e-06 9.10707172e-07 -1.12793053e-07 -2.47589360e-05
                -1.43608149e-05 9.56640179e-06 -1.34892562e-05 3.18365492e-05
                -4.15611339e-06 2.61135278e-06 1.28502661e-05 -3.27268822e-06
                -4.82790881e-07 2.90781136e-05 -5.76915590e-06 1.44276191e-06
                -3.34208271e-05 -1.01559326e-05 8.40072630e-07 6.18591002e-05
                -6.96547022e-06 -5.85230282e-06 -1.80907555e-05 1.81411015e-05
                6.07151742e-06 1.62687491e-06 -1.84550663e-05 -1.84550663e-05
                2.37747499e-05 1.64034882e-05 -1.03949878e-06 1.99066380e-05
                -2.97905103e-07 1.87104906e-05 2.21260237e-08 2.45598881e-06
                3.17874822e-07 -2.44529838e-05 -4.41740522e-05 -5.22864229e-06
                4.04478087e-05 6.56899090e-07 -6.56899101e-06 2.37227287e-05
                1.13886863e-05 -1.06831221e-05
            </_>
        </support_vectors>
        <uncompressed_sv_total>199</uncompressed_sv_total>
        <uncompressed_support_vectors>
            <_>
                2. 2000. 2000. 2000. 20. 2. 2. 200. 20. 2000. 2. 2. 1001. 200.
                110. 20. 2000. 2. 20. 200. 2. 2000. 11. 11. 2. 2. 110. 2. 20. 200.
                2000. 1001. 200. 20. 20. 2000. 2. 200. 2. 200. 2000. 20. 200. 200.
                20. 2000. 200. 20. 200. 20. 1001. 2. 200. 2000. 200. 2000. 2000.
                20. 2. 110. 1001. 1001. 2. 110. 110. 110. 11. 20. 1001. 20. 2000.
                110. 1001. 20. 1010. 110. 110. 110. 110. 20. 20. 2. 2. 2000. 200.
                2000. 2000. 2000. 20. 2000. 11. 20. 2. 20. 20. 20. 2. 2. 2. 20.
                200. 2000. 2000. 200. 2000. 110. 110. 200. 110. 2. 2. 20. 2. 20.
                2. 20. 2000. 110. 20. 20. 1010. 1001. 1001. 110. 110. 110. 20.
                200. 2. 110. 20. 2000. 200. 2. 2. 1010. 1010. 1001. 1100. 110.
                110. 101. 101. 1100. 1001. 1001. 1010. 110. 200. 20. 2. 200. 200.
                2. 20. 2. 2000. 20. 20. 110. 20. 2000. 2. 2000. 200. 20. 200. 20.
                1001. 2000. 101. 2000. 1001. 20. 1001. 2. 20. 2000. 20. 1010. 200.
                200. 200. 2000. 200. 1010. 200. 200. 200. 2. 2000. 20. 20. 2.
                2000. 200. 2000. 2000. 2000. 2000. 20. 2. 2. 200. 2000. 2. 2. 2.
                2. 2. 20. 1001. 20. 2000. 2000. 20. 110. 1001. 20. 2000. 20. 20.
                1001. 200. 20. 20. 2. 20. 20. 2000. 2000. 2000. 2000. 2000. 2. 20.
                2000. 200. 20. 200. 2000. 2. 1001. 1001. 110. 20. 1001. 200. 2.
                200. 20. 1001. 2000. 101. 20. 20. 110. 2. 2. 20. 11. 1001. 110.
                2000. 20. 2. 2000. 2000. 200. 2. 1001. 110. 2. 110. 2. 20. 2.
                1100. 200. 110. 1001. 110. 2. 110. 2000. 200. 200. 200. 200. 20.
                20. 2000. 2. 2000. 200. 20. 200. 2000. 2000. 2000. 200. 110. 110.
                110. 1010. 110. 1001. 200. 1001. 2. 1100. 20. 1001. 1001. 2000. 2.
                2. 2000. 20. 2. 2. 20. 1001. 20. 20. 20. 20. 2. 110. 110. 20.
                2000. 20. 2. 2. 2000. 200. 200. 2. 200. 2. 20. 2. 2. 110. 2. 110.
                200. 1001. 1001. 1010. 1010. 1010. 110. 2. 200. 2. 2. 2000. 2000.
                2. 2. 200. 110. 2. 200. 101. 200. 200. 11. 200. 11. 2000. 2000.
                20. 1001. 110. 1010. 2. 20. 200. 20. 20. 20. 2. 2. 2. 2000. 101.
                110. 110. 2000. 1001. 20. 2. 1001. 20. 1001. 101. 1001. 101. 1100.
                2. 2000. 2. 20. 200. 2. 110. 110. 110. 1001. 110. 1001. 110. 20.
                110. 20. 20. 110. 110. 1100. 110. 2000. 110. 20. 1001. 20. 20. 20.
                200. 2000. 101. 2. 1100. 2000. 2000. 200. 2. 2000. 2. 200. 20. 2.
                1001. 1100. 2000. 110. 110. 1001. 2. 200. 1010. 1001. 2000. 1001.
                110. 2. 20. 1001. 110. 110. 110. 110. 2. 1010. 2. 1010. 2. 1010.
                1010. 20. 110. 200. 2. 110. 2. 2000. 2000. 2000. 2000. 200. 2000.
                110. 11. 20. 1010. 200. 2. 2000. 20. 20. 200. 1001. 110. 20. 200.
                1001. 2. 200. 2000. 200. 2. 200. 20. 2. 20. 2000. 2. 2000. 20.
                101. 200. 200. 11. 20. 2. 110. 2000. 2. 20. 2. 110. 20. 2. 2. 110.
                1010. 20. 110. 11. 101. 1100. 2000. 11. 1001. 11. 11. 20. 1001. 2.
                1001. 1001. 2. 2000. 2000. 1100. 2000. 110. 1001. 110. 1001. 200.
                20. 200. 20. 101. 2. 2. 2. 2000. 2000. 101. 1001. 110. 110. 200.
                200. 1001. 2. 110. 2000. 110. 20. 2. 11. 2000. 20. 1100. 2. 2. 2.
                2000. 2000. 1001. 11. 1010. 1010. 110. 1001. 2. 1010. 1001. 101.
                200. 2. 200. 2. 2000. 20. 2000. 20. 20. 1001. 110. 1001. 110.
                1001. 1010. 110. 1100. 1001. 20. 110. 101. 1001. 20. 20. 2. 200.
                110. 200. 20. 200. 2000. 2. 2. 2. 20. 2. 2000. 2. 20. 20. 20. 2.
                20. 110. 2. 200. 20. 1001. 110. 1100. 110. 1001. 2. 1001. 2. 110.
                2000. 2000. 200. 20. 2. 200. 110. 20. 20. 200. 110. 2000. 11. 2.
                200. 2. 2000. 2. 200. 2. 110. 2. 20. 2000. 20. 2000. 200. 20. 20.
                2000. 20. 200. 2. 2. 200. 20. 2. 110. 11. 2000. 110. 110. 1010.
                110. 1001. 1001. 101. 1001. 1001. 1010. 110. 20. 1001. 1001. 200.
                2. 110. 2000. 11. 1001. 11. 1001. 1001. 2. 2. 20. 2000. 11. 110.
                1001. 20. 200.
            </_>
            <_>
                1001. 1001. 1001. 1001. 110. 101. 2. 110. 20. 2000. 2. 2. 1001.
                110. 110. 110. 1001. 101. 110. 200. 1001. 2000. 2. 20. 2. 2. 20.
                2. 20. 200. 1001. 2. 200. 20. 20. 2000. 101. 20. 2000. 20. 1001.
                20. 200. 200. 20. 2000. 200. 20. 200. 20. 1001. 2. 101. 2000.
                2000. 2. 2. 200. 20. 200. 2000. 2. 11. 110. 20. 20. 11. 20. 2000.
                0. 2000. 110. 1001. 110. 1010. 110. 110. 110. 200. 110. 110. 1001.
                2. 2000. 200. 2000. 2000. 2000. 20. 1001. 20. 20. 2. 20. 20. 20.
                2. 2. 2. 20. 200. 2000. 1001. 110. 2000. 110. 110. 110. 20. 2. 2.
                110. 2. 20. 2. 110. 1001. 200. 20. 20. 20. 2000. 2000. 20. 200.
                110. 20. 200. 2. 200. 20. 2000. 110. 1001. 1001. 2000. 1010. 2000.
                2000. 200. 20. 2. 200. 2000. 2. 2000. 20. 20. 110. 20. 2. 20. 20.
                2. 20. 2. 2000. 20. 20. 110. 20. 2000. 2. 1001. 110. 11. 101.
                1010. 2000. 1001. 2. 2000. 1001. 2. 2. 101. 1010. 2000. 20. 2000.
                110. 110. 1100. 1001. 110. 1010. 200. 200. 200. 2. 2000. 20. 20.
                2000. 2000. 110. 2000. 1001. 2000. 2000. 1010. 2. 2. 200. 2000. 2.
                2. 2. 2. 2. 20. 1001. 200. 2000. 2000. 1010. 20. 1001. 20. 2000.
                20. 20. 1001. 110. 1010. 20. 2. 110. 110. 1001. 1001. 1001. 1001.
                1010. 11. 1010. 1001. 110. 1010. 1100. 1001. 1001. 1001. 1001.
                110. 20. 1001. 110. 2. 110. 1010. 1001. 1001. 101. 20. 110. 200.
                1001. 101. 110. 20. 1001. 110. 2000. 20. 2. 1001. 1001. 110. 101.
                1001. 110. 2000. 200. 2000. 200. 1001. 1100. 110. 110. 1001. 20.
                20. 20. 1100. 110. 110. 101. 101. 20. 110. 1010. 1001. 1001. 110.
                20. 2. 2. 2. 2000. 200. 200. 110. 110. 20. 20. 2. 110. 2. 2. 2000.
                20. 2000. 2000. 2000. 1001. 11. 2000. 110. 101. 1001. 110. 1001.
                1010. 20. 20. 20. 2000. 20. 200. 1010. 2. 110. 1001. 1001. 1001.
                20. 20. 2000. 20. 11. 200. 2000. 2. 110. 2. 110. 20. 2. 1001.
                1010. 1010. 1010. 20. 2000. 20. 2000. 20. 1001. 1001. 2. 2. 200.
                200. 2. 2000. 2. 200. 200. 20. 200. 20. 2000. 2000. 20. 2. 20. 20.
                2000. 200. 20. 20. 20. 20. 2. 2. 2. 2000. 2. 20. 20. 1001. 2000.
                20. 2. 1001. 20. 2. 2. 2000. 101. 200. 1001. 1001. 2. 11. 110. 2.
                20. 200. 200. 2. 200. 2000. 200. 2. 20. 20. 20. 110. 110. 1100.
                110. 2000. 200. 200. 2. 20. 110. 110. 101. 1001. 101. 0. 200. 2.
                2. 20. 2000. 2000. 2. 200. 110. 1001. 2. 2000. 1001. 200. 20. 2.
                2. 200. 2000. 2. 2000. 2. 20. 1001. 20. 1001. 200. 200. 20. 200.
                2. 1010. 2. 20. 1001. 1010. 2000. 20. 20. 200. 2. 200. 11. 1001.
                1010. 1010. 1100. 110. 1001. 20. 11. 200. 1010. 110. 2. 2000. 20.
                20. 110. 2000. 200. 20. 200. 2000. 2. 101. 2000. 200. 2. 200. 20.
                2. 20. 2000. 2. 1001. 110. 101. 110. 110. 2. 200. 101. 110. 2000.
                1001. 20. 2. 110. 20. 2. 2. 20. 1010. 110. 110. 2. 101. 200. 2.
                20. 2000. 2. 2. 20. 2. 0. 1001. 2. 101. 2000. 2000. 2000. 1100.
                20. 1001. 110. 1001. 200. 110. 110. 20. 200. 101. 11. 101. 1001.
                2. 2. 2000. 20. 200. 200. 200. 1001. 1001. 20. 2000. 200. 2. 2000.
                2. 2. 200. 2000. 2. 1001. 1001. 1010. 1001. 2. 11. 1010. 1010.
                110. 1001. 1001. 1010. 1001. 200. 200. 2. 110. 2. 1001. 20. 1001.
                11. 1010. 2. 20. 2. 110. 1001. 1010. 110. 1100. 1001. 1010. 200.
                2. 2000. 20. 20. 2. 200. 200. 200. 110. 110. 1001. 1001. 101. 2.
                11. 1001. 1001. 101. 110. 11. 200. 2. 20. 20. 2. 200. 11. 2. 20.
                200. 200. 2000. 2. 2000. 2. 110. 2000. 1001. 200. 20. 2. 110. 20.
                11. 11. 110. 110. 2000. 2. 1001. 200. 2. 2000. 2. 110. 2. 110. 2.
                20. 1001. 20. 2000. 200. 20. 11. 1001. 20. 200. 1001. 1001. 101.
                20. 2. 20. 2. 1001. 20. 110. 2000. 20. 2. 2000. 200. 2. 2. 2000.
                20. 20. 2. 2. 200. 1001. 110. 2000. 11. 1001. 20. 2000. 2000. 2.
                1001. 20. 1001. 20. 20. 2000. 20. 200.
            </_>
            <_>
                2. 1001. 1001. 1001. 110. 101. 2. 200. 20. 2000. 2. 2. 2. 20. 20.
                20. 2000. 101. 110. 200. 1001. 2000. 11. 11. 11. 2. 20. 1001. 20.
                200. 2. 2. 200. 20. 110. 2000. 101. 20. 2000. 20. 1001. 20. 200.
                200. 20. 2000. 200. 20. 200. 20. 2000. 2. 101. 2000. 200. 2000.
                2000. 20. 2. 110. 1001. 1001. 11. 110. 20. 20. 11. 20. 1001. 20.
                2000. 20. 2000. 200. 2000. 20. 200. 20. 200. 20. 20. 2. 1001.
                1010. 110. 1001. 1001. 1001. 110. 1001. 11. 20. 2. 20. 20. 20. 2.
                2. 101. 20. 110. 2000. 2000. 200. 2000. 110. 20. 200. 20. 200. 2.
                20. 2. 20. 2. 20. 1001. 200. 110. 20. 20. 2000. 1001. 110. 110.
                200. 20. 200. 2. 110. 20. 2000. 200. 2. 2. 1010. 1010. 1001. 1100.
                110. 110. 101. 101. 1100. 1001. 1001. 1010. 110. 20. 20. 2. 110.
                110. 2. 20. 2. 2000. 20. 20. 20. 20. 2000. 2. 2000. 200. 20. 101.
                1010. 1001. 1001. 2. 2000. 2. 11. 1001. 101. 1010. 2000. 20. 20.
                20. 20. 2000. 2. 20. 1010. 200. 200. 200. 2. 2000. 11. 20. 1001.
                2000. 200. 2000. 2000. 1001. 1001. 20. 2. 2. 200. 2000. 2. 2. 101.
                1001. 1001. 110. 1001. 110. 1001. 1001. 20. 110. 2000. 20. 2000.
                20. 20. 2. 110. 20. 20. 2. 20. 110. 1001. 1001. 2. 2. 20. 20.
                1010. 1001. 110. 1010. 1100. 1001. 1001. 1001. 1001. 110. 20.
                1001. 200. 2. 20. 20. 2. 2000. 2. 20. 20. 20. 1001. 101. 110. 2.
                1001. 110. 2000. 20. 2. 2000. 1001. 110. 2. 1001. 110. 2000. 200.
                2. 20. 2. 1100. 20. 200. 2000. 20. 2. 20. 200. 20. 20. 2. 2. 20.
                20. 2000. 2. 2000. 200. 110. 101. 2. 1001. 2000. 1100. 200. 110.
                110. 1010. 110. 1001. 200. 2. 2. 1100. 110. 1001. 1001. 200. 2000.
                11. 2000. 110. 200. 2000. 110. 2. 1010. 11. 110. 11. 2. 200. 20.
                20. 1001. 20. 2. 2. 2000. 20. 20. 2000. 20. 20. 110. 1001. 2. 200.
                2. 110. 200. 2000. 2000. 2000. 20. 20. 20. 1001. 200. 1001. 11.
                1001. 1001. 1001. 1001. 110. 110. 1001. 200. 101. 200. 110. 11.
                110. 2. 2000. 2000. 20. 1001. 20. 1010. 1001. 110. 20. 20. 20. 20.
                2. 2. 2. 2000. 2. 20. 20. 2. 2000. 20. 1001. 1001. 20. 2. 2. 1001.
                101. 1100. 1001. 2. 11. 2. 20. 101. 110. 110. 110. 1001. 110.
                1001. 110. 2. 110. 20. 20. 200. 200. 200. 20. 2000. 110. 110.
                1001. 20. 110. 110. 101. 1001. 2. 2. 200. 2000. 2000. 200. 2.
                2000. 2. 200. 20. 1001. 1001. 1100. 2000. 200. 20. 2. 20. 101.
                2000. 1001. 1010. 2. 20. 1001. 20. 2000. 200. 200. 20. 200. 2.
                1010. 2. 20. 2000. 1010. 2000. 20. 20. 200. 1001. 200. 2. 2000.
                2000. 2000. 2000. 110. 1001. 110. 11. 20. 2000. 110. 2000. 1010.
                110. 20. 200. 2000. 200. 20. 200. 2000. 1001. 200. 2000. 200. 2.
                200. 20. 2. 20. 2000. 2. 1001. 200. 2. 200. 200. 20. 200. 2. 200.
                2000. 1001. 110. 1001. 110. 110. 1001. 2. 110. 1010. 20. 110. 11.
                101. 1100. 1001. 2. 2. 20. 2. 200. 2. 2. 2. 2000. 101. 2000. 1001.
                1100. 1100. 20. 1001. 110. 1001. 200. 110. 110. 20. 101. 2. 2. 2.
                2000. 2000. 101. 2000. 20. 200. 20. 110. 1001. 1001. 20. 2000.
                200. 2. 2000. 2. 2. 200. 1100. 2. 2. 2. 2000. 2000. 2. 11. 1010.
                1010. 20. 1001. 2. 1010. 1001. 101. 200. 2. 20. 2. 2000. 20. 1001.
                20. 20. 2000. 200. 2. 110. 1001. 1010. 110. 1100. 1001. 20. 20.
                200. 2. 20. 20. 2. 200. 110. 200. 110. 110. 1001. 1001. 101. 2.
                11. 1001. 2000. 2. 20. 20. 200. 2000. 2. 110. 1001. 110. 20. 2.
                20. 200. 110. 2000. 2. 2000. 2. 110. 1001. 1001. 110. 20. 2. 110.
                110. 2. 11. 110. 200. 2000. 2. 1001. 200. 2. 2000. 2. 110. 2000.
                110. 1001. 110. 2. 20. 2000. 200. 20. 20. 2000. 20. 200. 2000.
                2000. 2. 200. 2000. 20. 11. 2000. 20. 200. 2000. 20. 2000. 2. 101.
                1001. 1001. 1010. 110. 20. 2. 2. 110. 2. 110. 2000. 11. 2. 11.
                1001. 1001. 1001. 1001. 20. 2000. 20. 20. 1001. 110. 110.
            </_>
            <_>
                1001. 1001. 1001. 1001. 110. 101. 2. 110. 20. 2000. 2. 2. 1001.
                110. 110. 20. 2000. 2. 20. 200. 2. 20. 11. 2. 20. 2. 20. 2000. 2.
                20. 2000. 2. 200. 20. 20. 2000. 200. 110. 1001. 110. 1001. 20.
                200. 200. 20. 2000. 200. 20. 200. 11. 2. 2. 101. 2000. 2000. 1001.
                1001. 110. 11. 200. 2000. 2. 20. 20. 200. 110. 2. 110. 1001. 20.
                2000. 200. 2. 20. 2000. 20. 200. 20. 200. 20. 20. 2. 1001. 1010.
                110. 1001. 1001. 1001. 110. 2000. 11. 20. 2. 20. 20. 20. 2. 2.
                101. 20. 200. 2000. 2000. 200. 2000. 110. 110. 110. 110. 101. 2.
                110. 1001. 110. 1001. 110. 2000. 110. 20. 20. 1010. 1001. 2000.
                20. 200. 20. 20. 200. 2. 110. 20. 2000. 20. 2000. 2000. 1010. 20.
                2000. 2000. 200. 20. 2. 200. 2000. 2. 2000. 20. 20. 200. 20. 2.
                20. 20. 2. 11. 1001. 1100. 110. 11. 200. 20. 1001. 101. 2000. 110.
                11. 200. 2000. 2000. 2. 2. 2000. 1001. 11. 2. 2. 1010. 2000. 20.
                20. 200. 200. 200. 2000. 110. 1010. 110. 110. 110. 2. 2000. 20.
                20. 2000. 1001. 200. 2000. 2000. 1001. 1001. 1010. 2. 2. 200.
                2000. 2. 1001. 2. 2. 2. 20. 1001. 200. 1001. 2000. 20. 110. 1001.
                20. 2000. 20. 20. 1001. 110. 1010. 20. 2. 20. 20. 2000. 2000. 2.
                2. 20. 20. 2000. 2. 110. 2000. 2000. 2. 1001. 2. 2. 20. 20. 1001.
                200. 2. 200. 20. 1001. 2000. 2. 20. 20. 20. 1001. 101. 110. 11.
                1001. 110. 2000. 20. 2. 1001. 1001. 110. 101. 2000. 20. 2000. 200.
                2000. 200. 2. 2000. 20. 20. 2. 20. 2. 20. 1100. 110. 110. 101.
                101. 20. 20. 2000. 2. 2000. 200. 20. 101. 1001. 1001. 2000. 1100.
                200. 110. 110. 1010. 110. 1001. 110. 2. 2. 200. 20. 2. 2. 2000. 2.
                11. 2000. 20. 101. 1001. 110. 2. 1010. 20. 20. 11. 2. 110. 200.
                20. 1001. 20. 2. 2. 2000. 200. 200. 2. 200. 20. 110. 1001. 2. 200.
                2. 200. 20. 2000. 1001. 1010. 1010. 1010. 110. 1001. 110. 2000.
                20. 2000. 2000. 2. 2. 200. 20. 2. 200. 200. 200. 200. 11. 200. 20.
                2000. 2000. 20. 1001. 110. 2000. 1001. 110. 20. 20. 20. 20. 2. 2.
                2. 2000. 101. 110. 110. 2000. 1001. 110. 2. 2000. 20. 2. 101.
                1001. 101. 2000. 1001. 1001. 2. 11. 110. 101. 20. 200. 200. 2.
                110. 1001. 110. 2. 20. 20. 20. 200. 200. 200. 20. 1001. 200. 20.
                1001. 20. 110. 110. 101. 1001. 2. 2. 200. 2000. 2000. 200. 2.
                2000. 2. 200. 20. 2000. 2. 2000. 2000. 200. 20. 1001. 11. 101.
                2000. 2000. 1010. 2. 20. 2. 20. 1001. 110. 110. 110. 110. 2. 20.
                2. 1010. 1001. 2000. 2000. 110. 110. 2000. 2. 200. 2. 2000. 2000.
                2000. 2000. 200. 2000. 20. 11. 20. 2000. 200. 2. 2000. 110. 20.
                200. 1001. 110. 20. 200. 2000. 2000. 200. 1001. 110. 1001. 101.
                110. 11. 110. 1100. 101. 1001. 110. 101. 200. 200. 20. 200. 2.
                200. 2000. 2. 20. 2. 110. 20. 2. 2. 20. 2000. 20. 20. 2. 2. 200.
                1001. 20. 2000. 2. 11. 200. 2000. 2. 2000. 2. 2. 2000. 1001. 2000.
                1100. 20. 2000. 20. 2. 200. 110. 110. 20. 101. 101. 2. 2. 2000.
                1001. 2. 2000. 20. 200. 200. 200. 2. 1001. 20. 1001. 110. 11.
                1001. 11. 1001. 110. 200. 101. 2000. 2000. 20. 2. 1001. 20. 2000.
                2000. 20. 1001. 2. 1010. 2000. 2. 200. 2. 20. 2. 2000. 20. 2000.
                11. 1010. 1001. 110. 2. 110. 1001. 1010. 110. 1100. 1001. 20. 200.
                2. 2000. 20. 20. 2. 200. 110. 200. 110. 20. 2. 2000. 200. 2. 2.
                2000. 2000. 2. 20. 20. 200. 1001. 11. 110. 1001. 110. 11. 2000.
                200. 2000. 20. 2. 2. 2000. 2. 200. 1001. 1001. 110. 1010. 2. 110.
                20. 2. 2. 20. 200. 2000. 2. 2. 200. 2. 2000. 2. 200. 1001. 200. 2.
                20. 2000. 110. 1100. 110. 110. 11. 1001. 20. 200. 1001. 1001. 200.
                20. 2. 200. 2. 1001. 20. 200. 1010. 20. 1001. 1001. 200. 2. 2.
                2000. 20. 110. 1001. 1001. 200. 2000. 110. 2000. 11. 1001. 20.
                2000. 2000. 1001. 1001. 110. 1001. 20. 20. 2000. 20. 200.
            </_>
            <_>
                1001. 2000. 2000. 2000. 20. 2. 2000. 200. 200. 1001. 101. 101. 2.
                110. 110. 20. 2000. 2. 20. 200. 2. 2000. 20. 2. 11. 101. 110.
                1001. 11. 110. 2000. 1001. 200. 110. 20. 2000. 200. 200. 2. 200.
                2000. 20. 200. 200. 20. 2000. 200. 20. 200. 20. 1001. 2. 101.
                2000. 1100. 1001. 1001. 200. 11. 110. 1001. 1001. 20. 20. 110.
                110. 2. 200. 2000. 2. 2000. 200. 2. 20. 2000. 20. 200. 20. 200.
                20. 110. 2. 2000. 1010. 110. 1001. 1001. 1001. 110. 1001. 11. 20.
                2. 20. 20. 20. 2. 2. 101. 20. 200. 2000. 2000. 200. 2000. 110. 20.
                200. 200. 200. 2. 20. 2. 20. 2. 20. 1001. 110. 110. 20. 20. 2000.
                2000. 20. 200. 200. 20. 200. 2. 110. 20. 2000. 110. 1001. 2. 1010.
                2000. 2000. 2000. 200. 20. 2. 200. 2000. 2. 2000. 20. 20. 110.
                110. 2. 20. 20. 101. 20. 2. 2000. 20. 20. 200. 20. 2000. 2. 2000.
                200. 20. 101. 1010. 2. 2000. 101. 2000. 1001. 2. 2000. 200. 2000.
                2000. 20. 20. 110. 110. 1100. 1001. 110. 1010. 200. 200. 200. 2.
                2000. 2. 20. 2000. 1001. 200. 2000. 2000. 2000. 2000. 20. 2. 2000.
                20. 20. 2. 2000. 2. 2. 2. 20. 1001. 110. 2000. 2000. 1010. 110.
                1001. 20. 2000. 20. 20. 2. 200. 20. 20. 2. 110. 200. 1001. 1001.
                1001. 1001. 1010. 11. 1010. 1001. 110. 1010. 1100. 1001. 1001.
                1001. 1001. 110. 20. 2000. 110. 2. 110. 20. 1001. 2000. 2. 20. 20.
                20. 2. 2. 110. 2. 1001. 110. 2000. 20. 2. 2000. 1001. 200. 2.
                1001. 110. 2000. 110. 1001. 110. 2. 200. 110. 110. 1001. 20. 11.
                20. 1100. 110. 110. 101. 101. 20. 20. 2000. 2. 2000. 200. 20. 200.
                2. 1001. 2000. 200. 20. 20. 20. 2000. 200. 2000. 200. 2. 1001.
                1100. 110. 2. 2. 2000. 2000. 11. 1001. 110. 101. 1001. 200. 1001.
                1010. 11. 110. 11. 1001. 110. 200. 1010. 1001. 110. 1001. 1001.
                2000. 110. 110. 1001. 110. 20. 20. 2. 2. 110. 2. 20. 200. 1001.
                1001. 1010. 1010. 1010. 20. 2000. 110. 2. 2. 2000. 2000. 2. 2.
                200. 20. 2. 200. 200. 200. 200. 11. 110. 2. 2000. 2000. 20. 2000.
                200. 2000. 1001. 110. 20. 20. 20. 20. 2. 2. 2. 2000. 2. 20. 20.
                1001. 2000. 20. 2. 2000. 20. 1001. 101. 1001. 101. 1100. 1001.
                1001. 11. 11. 200. 200. 200. 20. 20. 2000. 110. 1001. 110. 2. 200.
                20. 20. 200. 200. 200. 20. 2000. 200. 20. 2. 20. 200. 200. 2. 2.
                2. 2. 1100. 1001. 1001. 110. 1001. 2000. 2. 200. 20. 1001. 2.
                2000. 2000. 200. 20. 1001. 11. 101. 2000. 2000. 1010. 2. 20. 2.
                20. 2000. 200. 200. 20. 200. 2. 2000. 2. 20. 1001. 20. 2000. 20.
                20. 1100. 2. 200. 11. 2000. 2000. 2000. 2000. 110. 1001. 110. 2.
                20. 2000. 200. 1001. 1010. 20. 20. 110. 1001. 110. 20. 200. 1001.
                1001. 200. 1001. 110. 2000. 101. 110. 2. 20. 2000. 101. 1001. 110.
                101. 110. 110. 11. 110. 101. 110. 2000. 1001. 20. 2. 110. 110.
                1001. 2000. 20. 2000. 20. 200. 11. 200. 1100. 2000. 20. 2000. 2.
                11. 110. 2. 2. 1001. 1001. 2. 1001. 2000. 200. 2000. 20. 2. 200.
                2000. 200. 20. 200. 20. 2. 2. 11. 101. 1001. 2. 200. 2000. 20.
                200. 200. 200. 2. 2. 20. 2000. 20. 20. 2. 20. 1001. 110. 1100.
                101. 2. 2. 2000. 2000. 2. 11. 1010. 1010. 110. 2. 2. 1010. 1001.
                101. 200. 2. 20. 2. 1001. 200. 1001. 11. 20. 1001. 110. 2. 200.
                2000. 20. 200. 2000. 2000. 20. 110. 101. 1001. 20. 20. 2. 200. 20.
                200. 200. 200. 2000. 2. 2. 2. 20. 2. 2000. 2. 20. 20. 110. 2. 20.
                20. 2. 200. 20. 1001. 110. 1100. 110. 1001. 2. 2000. 2. 110. 2000.
                2000. 200. 20. 1001. 20. 110. 2. 2. 110. 200. 2000. 2. 1001. 110.
                1001. 1100. 1001. 110. 1001. 110. 1001. 110. 2000. 110. 1100. 110.
                110. 2. 2. 20. 200. 1001. 1001. 101. 110. 1001. 110. 2. 2000. 110.
                200. 2000. 110. 1001. 1001. 200. 2. 2. 20. 20. 20. 2000. 2000. 20.
                1001. 20. 2000. 20. 2. 20. 2000. 2000. 2. 1001. 110. 2000. 20. 20.
                2000. 20. 200.
            </_>
            <_>
                1001. 1001. 1001. 1001. 110. 101. 2. 200. 20. 2000. 101. 2. 2. 20.
                20. 20. 2000. 2. 20. 200. 1001. 1010. 20. 11. 11. 101. 110. 2000.
                2. 20. 2000. 2. 200. 20. 20. 2000. 2. 110. 1001. 110. 1001. 20.
                200. 200. 20. 2000. 200. 20. 200. 20. 1001. 1001. 200. 2000. 200.
                2000. 2000. 20. 2. 110. 1001. 2. 20. 110. 20. 20. 2. 20. 2000. 20.
                2000. 110. 1001. 110. 1010. 110. 110. 110. 200. 20. 20. 2. 2.
                2000. 200. 2000. 2000. 2000. 20. 1001. 11. 20. 2. 20. 20. 20. 2.
                2. 2. 20. 200. 2000. 1001. 110. 2000. 110. 20. 200. 110. 200. 2.
                20. 2. 20. 2. 20. 1001. 110. 110. 20. 1010. 2000. 2000. 20. 200.
                110. 20. 200. 2. 20. 1010. 1100. 200. 2. 2. 2000. 20. 2. 200. 20.
                200. 200. 2. 200. 2000. 2. 2000. 200. 110. 20. 1001. 110. 110. 2.
                11. 1001. 1100. 110. 20. 110. 20. 2. 200. 1001. 20. 2. 101. 20.
                1001. 2000. 2. 2000. 2. 11. 1001. 101. 2000. 2000. 20. 1010. 110.
                110. 1100. 1001. 110. 20. 20. 20. 20. 2. 2000. 20. 20. 2. 1001.
                110. 2000. 2000. 2. 2. 20. 2. 1001. 110. 1010. 2. 1001. 101. 1001.
                1001. 110. 2000. 110. 2000. 2000. 20. 20. 2000. 20. 2000. 20. 20.
                1001. 200. 2000. 20. 2. 20. 110. 1001. 1001. 2000. 2000. 2000. 2.
                20. 2000. 200. 20. 200. 2000. 2. 2. 2. 20. 20. 2000. 200. 2. 110.
                1010. 1001. 2000. 101. 20. 20. 20. 1001. 101. 200. 2. 2000. 200.
                1010. 110. 101. 2000. 2. 200. 200. 2000. 20. 2000. 200. 1001. 110.
                2. 1100. 20. 110. 1001. 20. 11. 110. 2000. 200. 200. 200. 200.
                110. 110. 1010. 1001. 1001. 110. 20. 2. 2. 2. 200. 1100. 110. 110.
                110. 1010. 110. 2000. 200. 2. 1001. 200. 20. 2. 2. 1100. 2. 2.
                2000. 20. 2. 2. 20. 2. 2000. 20. 20. 11. 2000. 20. 200. 20. 2000.
                20. 2. 2. 2000. 110. 110. 1001. 110. 11. 110. 1001. 2. 200. 2.
                110. 200. 1001. 1001. 20. 2000. 2000. 20. 1001. 110. 2000. 20.
                1001. 1001. 1001. 1001. 110. 110. 1001. 1100. 200. 1100. 20. 20.
                200. 11. 2000. 2000. 20. 2. 200. 2000. 1001. 110. 110. 20. 20. 20.
                2. 2. 2. 2000. 2. 20. 20. 1001. 2000. 20. 2. 2000. 20. 1001. 101.
                1001. 101. 2000. 2. 2000. 2. 20. 200. 200. 200. 20. 20. 2000. 20.
                2. 20. 11. 200. 20. 20. 200. 200. 200. 20. 2. 200. 200. 1001. 20.
                110. 110. 101. 1001. 101. 2. 1100. 2000. 2000. 200. 2. 2000. 2.
                200. 20. 2000. 2. 2000. 2000. 200. 20. 1001. 11. 101. 2000. 2000.
                1010. 2. 20. 2. 20. 2. 20. 20. 200. 20. 2. 2000. 2. 20. 1001.
                2000. 2000. 20. 20. 200. 2. 200. 2. 2000. 2000. 2000. 2000. 200.
                2000. 110. 11. 110. 20. 200. 1001. 1010. 20. 20. 200. 1001. 110.
                20. 200. 2000. 2000. 101. 2000. 200. 2. 200. 20. 2. 20. 2000. 2.
                2000. 20. 200. 110. 110. 11. 110. 2. 110. 2000. 2. 20. 2. 110. 20.
                2. 2. 20. 1010. 20. 20. 2. 2. 200. 2. 11. 1001. 11. 20. 20. 2. 2.
                2000. 2. 101. 2000. 1001. 1100. 1100. 20. 2000. 20. 2. 2000. 20.
                200. 20. 2. 200. 2. 2. 2000. 2000. 101. 1001. 110. 110. 110. 110.
                2. 1001. 20. 2000. 200. 2. 2000. 11. 2. 200. 2000. 101. 1001.
                1001. 1010. 1001. 2000. 20. 2000. 2000. 20. 2000. 2. 20. 2000.
                101. 200. 2. 20. 2. 2000. 110. 2000. 11. 20. 2000. 200. 2. 200.
                2000. 20. 200. 2000. 2000. 20. 110. 101. 1001. 20. 20. 2. 200.
                200. 200. 200. 110. 1001. 1001. 101. 2. 11. 1001. 2000. 2. 20. 20.
                110. 2000. 2. 110. 1001. 110. 20. 2. 20. 200. 110. 2000. 2. 1001.
                2. 110. 2000. 2000. 200. 20. 1001. 20. 20. 20. 20. 200. 200. 2000.
                11. 1001. 20. 2000. 200. 2000. 110. 2. 200. 2. 20. 2000. 20. 2000.
                200. 20. 11. 1001. 110. 200. 1001. 1001. 101. 20. 2. 110. 2. 1001.
                110. 200. 1010. 110. 2000. 2. 101. 1001. 1001. 2000. 20. 20. 2. 2.
                110. 1001. 20. 1100. 11. 1001. 20. 2000. 2000. 2. 2. 20. 2000. 20.
                20. 1001. 20. 200.
            </_>
            <_>
                1001. 2. 2. 2. 200. 200. 2. 110. 20. 2000. 2. 2. 2. 110. 20. 20.
                2000. 2. 20. 200. 2. 2000. 11. 11. 11. 101. 110. 2. 20. 200. 2000.
                1001. 200. 110. 20. 2. 101. 110. 1001. 110. 2. 20. 200. 200. 20.
                2000. 200. 20. 200. 11. 1001. 2. 101. 2000. 2000. 2. 2. 200. 20.
                200. 2000. 2. 11. 20. 110. 20. 11. 20. 2000. 2. 2000. 110. 1001.
                20. 2000. 20. 200. 20. 200. 20. 20. 2. 1001. 1010. 110. 1001.
                1001. 1001. 110. 2000. 11. 20. 2. 20. 20. 20. 2. 2. 2. 1010. 20.
                1001. 1001. 110. 2000. 20. 20. 200. 110. 200. 2. 20. 2. 20. 2. 20.
                2000. 110. 20. 20. 1010. 1001. 1001. 110. 110. 110. 11. 1100. 11.
                110. 20. 1100. 20. 2000. 1001. 20. 1010. 1001. 1100. 110. 110.
                101. 101. 1100. 1001. 1001. 1010. 110. 200. 20. 2. 110. 110. 2.
                20. 2. 2000. 20. 20. 110. 20. 2000. 2. 2000. 200. 20. 200. 20. 2.
                2000. 101. 2000. 1001. 11. 2000. 2. 20. 2000. 20. 2000. 110. 110.
                2000. 2. 20. 20. 200. 200. 200. 2. 2000. 20. 20. 2. 2. 200. 2000.
                1001. 1001. 1001. 1010. 2. 1001. 110. 1010. 2. 1001. 2. 2. 2. 20.
                1001. 110. 2000. 2000. 1010. 200. 2000. 20. 2000. 20. 20. 2. 200.
                1010. 20. 2. 110. 110. 1001. 1001. 2. 2. 20. 20. 2000. 2. 20.
                2000. 2000. 2. 2000. 2. 2. 20. 20. 1001. 200. 2. 110. 20. 2. 2000.
                101. 20. 20. 20. 1001. 101. 110. 2. 2000. 200. 2000. 20. 2. 2000.
                1001. 200. 2. 1001. 110. 2000. 200. 2. 20. 2. 1100. 110. 110.
                1001. 20. 20. 20. 1100. 110. 110. 101. 101. 20. 20. 2000. 2. 2000.
                200. 200. 200. 2. 2. 2000. 1100. 20. 110. 110. 20. 20. 1001. 200.
                1001. 1001. 2000. 20. 2000. 1001. 2000. 2. 20. 1001. 200. 200.
                2000. 110. 2000. 1010. 20. 20. 20. 2. 200. 200. 20. 2000. 20. 2.
                2. 1001. 110. 110. 1001. 110. 20. 110. 1001. 2. 200. 2. 110. 20.
                2. 1001. 1010. 2000. 1010. 20. 2000. 110. 2000. 20. 1001. 1001.
                1001. 1001. 110. 200. 1001. 1100. 101. 200. 110. 11. 110. 11.
                2000. 2000. 20. 2. 200. 2000. 2000. 200. 20. 20. 20. 20. 2. 2. 2.
                2000. 200. 110. 110. 1001. 1001. 200. 2. 1001. 20. 2. 101. 1001.
                101. 2000. 2. 2000. 2. 20. 200. 200. 200. 20. 20. 2000. 20. 2. 20.
                2. 200. 20. 20. 110. 110. 1100. 110. 1001. 200. 200. 2. 20. 110.
                110. 101. 1001. 2. 2. 200. 2000. 2000. 200. 2. 2000. 2. 200. 110.
                2. 1001. 1100. 2000. 200. 20. 1001. 11. 101. 2000. 2000. 2000. 2.
                20. 1001. 20. 1001. 110. 110. 110. 110. 2. 2000. 2. 20. 1001.
                1010. 2000. 110. 110. 1100. 1001. 200. 11. 2000. 2000. 2000. 2000.
                20. 2000. 20. 2. 20. 2000. 200. 1001. 1010. 20. 20. 200. 2000.
                200. 20. 200. 1001. 2000. 200. 1001. 110. 2. 200. 20. 2. 20. 2000.
                2. 2. 200. 2. 200. 200. 11. 110. 101. 200. 2000. 2000. 20. 2. 110.
                20. 2. 2. 110. 1010. 20. 20. 2. 2. 200. 2. 20. 2000. 2. 11. 110.
                1001. 2. 2000. 2. 101. 2000. 1001. 2000. 1100. 20. 2000. 20. 2.
                200. 110. 110. 11. 2. 2. 2. 2. 2000. 2000. 101. 2000. 20. 200.
                200. 200. 2. 2000. 20. 2000. 200. 11. 1001. 2. 2000. 110. 1100. 2.
                2000. 2000. 20. 2. 1001. 11. 1010. 1010. 110. 1001. 1001. 1010.
                1001. 2. 200. 2. 20. 2. 1001. 110. 2000. 11. 20. 2. 20. 2. 110.
                1001. 20. 200. 2000. 2000. 20. 200. 2. 2000. 20. 20. 2. 200. 110.
                200. 110. 200. 2000. 2. 2. 2. 20. 2. 2000. 2. 20. 20. 110. 1001.
                11. 110. 1001. 110. 11. 2000. 200. 2000. 20. 2. 2. 2. 11. 20.
                1001. 1001. 110. 1010. 2. 200. 20. 11. 11. 110. 110. 2000. 2. 2.
                200. 2. 2000. 1001. 200. 1001. 200. 2. 20. 1001. 20. 2000. 200.
                20. 11. 1001. 20. 200. 2000. 2000. 101. 20. 2. 110. 2. 2000. 110.
                200. 1010. 200. 2000. 2. 200. 2. 2. 1010. 20. 20. 2. 2. 110. 1001.
                200. 2000. 20. 1001. 20. 2000. 2000. 2. 1001. 20. 1001. 20. 20.
                2000. 20. 200.
            </_>
            <_>
                1001. 1001. 1001. 1001. 110. 101. 2. 110. 20. 2000. 2. 2. 2. 200.
                110. 20. 2000. 2. 20. 200. 2000. 1010. 20. 2. 2. 2. 20. 1001. 11.
                110. 2000. 2. 200. 20. 20. 2000. 2. 110. 1001. 110. 2000. 20. 200.
                200. 20. 2000. 200. 20. 200. 11. 2. 1001. 101. 1001. 200. 2000.
                2000. 20. 2. 110. 1001. 1001. 11. 110. 110. 110. 2. 20. 2000. 20.
                2000. 110. 1001. 20. 1010. 110. 110. 110. 200. 20. 20. 2. 2. 2000.
                200. 2000. 2000. 2000. 20. 1001. 2. 20. 2. 20. 20. 20. 2. 2. 200.
                20. 200. 2000. 2000. 200. 1001. 110. 110. 110. 20. 2. 2. 110.
                1001. 110. 1001. 110. 1001. 110. 110. 20. 1010. 2000. 2000. 20.
                200. 110. 20. 200. 2. 20. 20. 1100. 200. 2. 2. 20. 1010. 2. 200.
                20. 200. 200. 2. 200. 2000. 2. 2000. 200. 110. 20. 2. 110. 110. 2.
                20. 2. 2000. 20. 20. 200. 20. 2. 200. 1001. 20. 2. 101. 20. 2000.
                1001. 2. 1001. 1001. 11. 2000. 101. 1010. 2000. 20. 1010. 20. 20.
                2000. 1001. 110. 2000. 200. 200. 200. 2. 2000. 11. 20. 2000. 1001.
                200. 1001. 2000. 2. 2. 20. 2. 2. 200. 2000. 2. 2. 2. 2. 2. 20.
                2000. 110. 2000. 2000. 20. 20. 1001. 20. 2000. 20. 20. 1001. 200.
                20. 20. 2. 110. 110. 2. 2. 2000. 2000. 2000. 2. 20. 2000. 200. 20.
                200. 2000. 2. 2. 2. 20. 20. 1001. 200. 2. 200. 20. 1001. 2000. 2.
                20. 20. 20. 2000. 200. 110. 2. 2000. 200. 2000. 20. 2. 2000. 2000.
                200. 101. 2000. 20. 1001. 110. 1001. 110. 1001. 1100. 110. 200.
                2000. 20. 20. 20. 1100. 110. 110. 101. 101. 110. 110. 1010. 1001.
                1001. 110. 110. 2. 2. 1001. 2000. 1100. 200. 200. 200. 1010. 110.
                2000. 200. 2. 1001. 1100. 110. 1001. 1001. 1100. 2. 20. 1001. 110.
                200. 2000. 110. 2000. 20. 20. 110. 20. 2000. 20. 110. 20. 2000.
                20. 2. 2. 2000. 110. 110. 1001. 110. 20. 110. 1001. 2. 110. 2.
                110. 110. 2. 2000. 2000. 1010. 1010. 20. 1001. 110. 2. 2. 1001.
                2000. 2. 2. 200. 110. 2. 200. 101. 1100. 110. 11. 110. 20. 2000.
                2000. 20. 1001. 200. 2000. 1001. 110. 110. 20. 20. 20. 2. 2. 2.
                2000. 2. 20. 20. 1001. 2000. 110. 2. 1001. 20. 2. 2. 1001. 101.
                1100. 2. 2000. 2. 20. 110. 200. 200. 20. 20. 2000. 20. 2. 20. 11.
                110. 20. 20. 200. 200. 200. 20. 2000. 200. 20. 1001. 20. 110. 110.
                101. 1001. 101. 2. 200. 1001. 1001. 110. 1001. 2000. 2. 200. 20.
                2000. 2. 2000. 2000. 200. 20. 1001. 11. 101. 2000. 2000. 1010. 2.
                20. 2. 20. 1001. 110. 110. 110. 110. 2. 2000. 2. 20. 2. 1010.
                2000. 200. 200. 2000. 2. 200. 11. 1001. 1010. 1010. 1100. 200.
                2000. 20. 2. 110. 1010. 20. 1001. 1010. 20. 20. 200. 2000. 200.
                110. 200. 1001. 2. 101. 1001. 110. 2. 101. 110. 2. 20. 2000. 2.
                2000. 20. 200. 200. 200. 11. 110. 101. 110. 2000. 1001. 110. 1001.
                20. 110. 1001. 2. 110. 2000. 20. 200. 11. 101. 1100. 1001. 20.
                1001. 2. 2. 110. 2000. 2. 2000. 2. 2. 2000. 1001. 1100. 1100. 20.
                2000. 20. 2. 1100. 110. 110. 11. 101. 2. 2. 2. 2000. 1001. 2.
                2000. 20. 200. 200. 200. 1001. 1001. 20. 2000. 200. 2. 2000. 2. 2.
                200. 2000. 101. 2000. 2000. 20. 2. 1001. 20. 2000. 2000. 20. 2.
                2000. 2000. 2. 101. 200. 2. 110. 2. 2000. 110. 1001. 11. 20. 2000.
                200. 2. 200. 2000. 20. 200. 2000. 2000. 20. 110. 101. 1001. 1010.
                1010. 11. 101. 20. 200. 110. 110. 1001. 1001. 101. 2. 11. 1001.
                2000. 2. 20. 20. 110. 2. 20. 110. 1001. 110. 2. 2000. 200. 2000.
                20. 2. 2. 1001. 2. 110. 1001. 1001. 110. 1010. 2. 20. 200. 11. 2.
                20. 200. 2000. 2. 2. 200. 2. 2000. 2. 200. 2. 110. 1001. 110.
                2000. 20. 2000. 200. 20. 11. 1001. 20. 200. 1001. 1001. 200. 20.
                2. 200. 2. 2000. 20. 200. 1010. 20. 1001. 1001. 101. 1001. 1001.
                1010. 110. 20. 1001. 1001. 110. 1001. 110. 2000. 2. 2000. 20.
                2000. 2000. 2. 2. 20. 2000. 20. 20. 1001. 20. 200.
            </_>
            <_>
                2. 2. 2. 1001. 110. 101. 1001. 110. 110. 2000. 2. 101. 2. 110.
                110. 20. 2000. 2. 20. 200. 1001. 2000. 11. 20. 11. 101. 110. 2. 2.
                20. 1001. 1001. 200. 110. 20. 2000. 101. 20. 2000. 20. 1001. 20.
                200. 200. 20. 2000. 200. 20. 200. 2. 2000. 2. 101. 1001. 200.
                1001. 1001. 200. 11. 200. 2000. 2. 11. 200. 20. 20. 2. 110. 2000.
                2. 2000. 200. 2. 20. 2000. 110. 110. 110. 200. 20. 110. 2. 1001.
                1010. 110. 1001. 1001. 1001. 110. 2. 2. 20. 2. 20. 20. 20. 2. 2.
                101. 20. 200. 2000. 2000. 200. 2000. 110. 20. 200. 110. 101. 2.
                20. 2. 20. 2. 20. 1001. 110. 110. 20. 1010. 2000. 2. 200. 20. 200.
                20. 200. 2. 110. 20. 2000. 110. 1001. 1001. 1010. 20. 1001. 1100.
                110. 110. 101. 101. 1100. 1001. 1001. 1010. 110. 20. 110. 2. 200.
                200. 2. 20. 2. 2000. 20. 20. 110. 20. 2. 200. 2. 20. 2. 2. 1010.
                1001. 2000. 2. 2000. 2000. 11. 2. 101. 2000. 2000. 200. 20. 110.
                110. 1100. 2. 20. 2000. 200. 200. 200. 2. 2000. 20. 20. 1001.
                1001. 200. 2000. 2000. 2000. 2000. 1010. 2. 2. 200. 2000. 2. 2. 2.
                2. 2. 20. 1001. 110. 2. 2. 1010. 20. 2000. 20. 2000. 20. 20. 1001.
                200. 20. 20. 2. 20. 20. 2000. 2000. 2000. 2000. 2000. 2. 20. 2000.
                200. 20. 200. 2000. 2. 1001. 1001. 110. 20. 2000. 20. 2. 20. 2000.
                2. 2000. 200. 20. 20. 20. 2000. 200. 200. 2. 2000. 200. 2000. 20.
                2. 2000. 1001. 200. 2. 2. 200. 1001. 200. 1001. 110. 1001. 1100.
                20. 110. 1001. 110. 2. 200. 2000. 200. 200. 200. 200. 200. 200.
                20. 2000. 2. 20. 110. 200. 2. 2. 1100. 1100. 200. 200. 200. 20.
                20. 1001. 110. 2. 1001. 200. 20. 2. 2. 2000. 2. 2. 2000. 20. 2. 2.
                200. 1001. 1010. 20. 20. 20. 1001. 110. 200. 20. 1001. 20. 2. 2.
                2000. 200. 200. 2. 200. 11. 20. 2. 2. 110. 2. 200. 200. 2000.
                1001. 1010. 1010. 1010. 20. 1001. 110. 1001. 11. 2000. 2000. 2. 2.
                200. 200. 2. 200. 2. 200. 110. 2. 110. 11. 2000. 2000. 20. 2. 110.
                2000. 2000. 200. 20. 20. 20. 110. 1001. 1001. 1001. 1001. 2. 20.
                20. 1001. 2000. 20. 2. 2000. 20. 2. 2. 2. 2. 2000. 1001. 1001. 11.
                11. 110. 101. 110. 110. 110. 1001. 110. 1001. 110. 2. 20. 20. 20.
                110. 110. 1100. 110. 2000. 200. 20. 2. 20. 110. 110. 101. 1001. 2.
                2. 1100. 2000. 2000. 200. 2. 2000. 2. 200. 110. 2. 2000. 200.
                2000. 200. 20. 1001. 11. 101. 2000. 2000. 1010. 2. 20. 2. 20.
                1001. 110. 110. 110. 110. 2. 2000. 2. 20. 1001. 1010. 2000. 20.
                20. 200. 1001. 200. 2. 2000. 2000. 2000. 2000. 110. 2. 20. 2. 110.
                1010. 200. 2000. 20. 20. 20. 200. 1001. 110. 20. 200. 2000. 1001.
                101. 2000. 200. 1001. 101. 110. 2. 20. 2000. 2. 2000. 20. 101.
                110. 110. 11. 200. 2. 110. 2000. 1001. 20. 2. 110. 20. 2. 2. 20.
                2000. 20. 110. 2. 2. 200. 2000. 20. 2000. 2. 2. 110. 1001. 2.
                2000. 2. 101. 1001. 2000. 2000. 1100. 20. 2. 200. 2000. 200. 200.
                20. 20. 2. 2. 2. 2. 2000. 2. 200. 1001. 110. 110. 110. 110. 2.
                1001. 20. 2000. 200. 11. 1001. 11. 2000. 20. 1100. 200. 2. 2.
                2000. 2000. 2000. 20. 2000. 2000. 20. 1001. 1001. 1010. 1001. 200.
                200. 2. 20. 2. 2000. 20. 2000. 11. 20. 2. 110. 2. 200. 2000. 20.
                200. 2000. 2000. 20. 20. 200. 2. 20. 20. 2. 200. 20. 200. 110.
                110. 1001. 1001. 101. 2. 11. 1001. 2000. 2. 20. 20. 110. 2000. 2.
                110. 1001. 200. 2. 2000. 200. 2000. 20. 2. 2. 2000. 2. 110. 1001.
                1001. 110. 20. 2. 20. 20. 2. 11. 110. 200. 2000. 2. 2. 200. 2.
                2000. 2. 110. 1001. 110. 2. 20. 2000. 110. 1100. 110. 110. 11.
                1001. 20. 200. 1001. 1001. 101. 20. 2. 110. 2. 2000. 20. 110.
                1010. 110. 2000. 2. 101. 1001. 1001. 1010. 110. 20. 1001. 1001.
                110. 1001. 110. 2000. 20. 2. 20. 2000. 2000. 2. 2. 20. 2000. 11.
                110. 2000. 110. 110.
            </_>
            <_>
                2000. 1001. 1001. 1001. 110. 101. 2. 20. 20. 2000. 2. 2. 2. 110.
                110. 20. 2000. 2. 20. 200. 1001. 2000. 11. 2. 11. 101. 110. 2. 20.
                200. 2000. 2000. 200. 20. 20. 2000. 101. 110. 1001. 110. 2. 20.
                200. 200. 110. 2000. 110. 20. 110. 11. 1001. 1001. 101. 2000. 200.
                2000. 2000. 20. 2. 200. 2000. 2. 11. 110. 110. 110. 20. 20. 2000.
                20. 2000. 200. 2. 20. 2000. 20. 200. 20. 200. 20. 20. 2. 1001.
                1010. 110. 1001. 1001. 1001. 110. 2. 20. 20. 2. 20. 20. 20. 2. 2.
                200. 1010. 20. 1001. 1001. 110. 2000. 200. 20. 200. 110. 101. 101.
                110. 1001. 110. 1001. 110. 2000. 20. 20. 20. 1010. 2000. 2000. 20.
                200. 20. 20. 200. 11. 110. 20. 2000. 110. 1001. 2. 2000. 20. 2.
                200. 20. 200. 200. 2. 200. 2000. 2. 2000. 200. 20. 110. 1001. 110.
                110. 101. 20. 2. 2000. 20. 20. 110. 20. 1001. 101. 2000. 110. 11.
                101. 1010. 1001. 1001. 2. 2000. 1001. 20. 1001. 200. 1010. 2000.
                20. 1010. 20. 20. 2000. 2. 20. 1010. 200. 200. 200. 2. 2000. 20.
                20. 1001. 2000. 200. 2000. 2000. 2000. 2000. 1010. 2. 2. 200.
                2000. 2. 1001. 2. 2. 2. 20. 2000. 110. 2000. 2000. 1010. 20. 2000.
                20. 2000. 20. 20. 2. 200. 20. 20. 2. 20. 20. 1001. 1001. 1001.
                1001. 1010. 11. 1010. 1001. 200. 1010. 1100. 1001. 2. 2. 2. 20.
                20. 1001. 200. 2. 200. 20. 1001. 2000. 2. 20. 20. 20. 2. 2. 20.
                20. 2000. 200. 2000. 20. 2. 2000. 2. 200. 101. 2000. 20. 2000.
                200. 1001. 110. 1001. 200. 110. 110. 2000. 20. 2. 20. 1100. 20.
                20. 2. 2. 200. 110. 20. 2000. 2. 20. 110. 200. 2. 2. 2000. 1100.
                200. 110. 110. 2000. 200. 1001. 110. 2. 2. 200. 20. 2. 2. 2000. 2.
                2. 2000. 20. 2. 2. 110. 1001. 1010. 20. 20. 20. 2000. 20. 200. 20.
                1001. 20. 2. 2. 2000. 20. 20. 2000. 20. 20. 110. 1001. 2. 200. 2.
                110. 110. 2000. 2. 20. 2000. 2000. 20. 2000. 110. 1001. 11. 2000.
                2000. 2. 2. 200. 110. 2. 200. 101. 200. 200. 11. 110. 11. 1001.
                1001. 110. 2. 20. 1010. 1001. 110. 20. 110. 110. 110. 1001. 1001.
                1001. 1001. 2. 20. 20. 1001. 2000. 110. 2. 2000. 20. 2. 2. 2000.
                101. 1100. 2000. 2. 11. 2. 20. 200. 200. 20. 20. 2000. 20. 2. 20.
                2. 20. 20. 20. 200. 200. 200. 20. 1001. 200. 110. 1001. 20. 20.
                20. 200. 2000. 200. 2. 1100. 1001. 1001. 110. 2. 2000. 2. 200. 20.
                1001. 2. 2000. 1001. 200. 20. 2. 11. 101. 2000. 1001. 1010. 2. 20.
                2. 20. 1001. 110. 110. 110. 110. 2. 20. 2. 1010. 1001. 20. 2000.
                110. 110. 1100. 2. 200. 2. 2000. 2000. 2000. 2000. 110. 1001. 110.
                11. 20. 2000. 110. 1001. 1010. 110. 20. 200. 1001. 110. 20. 200.
                1001. 2. 200. 1001. 110. 1001. 200. 20. 2. 20. 2000. 2. 1001. 20.
                101. 110. 110. 11. 200. 2. 110. 2. 2000. 200. 2000. 110. 110.
                1001. 1001. 20. 2000. 20. 200. 2. 101. 200. 2. 20. 2000. 2. 2.
                200. 1001. 2. 2000. 2. 2. 2000. 1001. 2000. 1100. 20. 2. 200.
                2000. 2000. 20. 200. 20. 200. 101. 11. 101. 1001. 1001. 200. 2000.
                20. 200. 200. 200. 2. 2. 110. 1001. 110. 11. 1001. 11. 1001. 110.
                2000. 2. 2. 2. 2000. 2000. 2. 2. 20. 20. 200. 1001. 1001. 1010.
                1001. 101. 110. 1001. 20. 2. 1001. 110. 1001. 20. 20. 1001. 110.
                2. 110. 1001. 1010. 110. 1100. 1001. 20. 200. 2. 2000. 20. 20. 2.
                200. 20. 200. 110. 110. 1001. 1001. 101. 2. 11. 1001. 2000. 2. 20.
                20. 110. 1001. 11. 110. 1001. 200. 2. 1001. 110. 1100. 110. 1001.
                2. 1001. 11. 110. 2. 2. 20. 1010. 2. 20. 110. 2. 11. 110. 200.
                2000. 20. 2. 200. 2. 2000. 2. 110. 2. 200. 1001. 110. 2000. 20.
                2000. 200. 20. 11. 1001. 110. 110. 2. 2. 200. 20. 2. 110. 11.
                2000. 20. 110. 1010. 200. 2000. 2. 200. 2. 2. 1010. 20. 20. 2. 2.
                200. 1001. 110. 2000. 2. 1001. 11. 1001. 1001. 1001. 1001. 20.
                1001. 11. 110. 1001. 20. 200.
            </_>
            <_>
                2000. 2000. 2000. 2000. 20. 2. 2. 110. 20. 2000. 2. 2. 2. 200. 20.
                20. 2000. 2. 20. 200. 2. 1010. 11. 20. 20. 2. 20. 2000. 20. 200.
                1001. 2. 200. 110. 20. 1001. 2. 110. 1001. 110. 1001. 20. 200.
                200. 20. 2000. 200. 20. 200. 11. 2000. 1001. 101. 2000. 200. 2000.
                2000. 20. 2. 110. 1001. 2. 11. 20. 110. 20. 2. 20. 2000. 20. 1001.
                20. 2000. 200. 2000. 110. 110. 110. 200. 20. 20. 2. 1001. 2000.
                200. 2000. 2000. 2000. 20. 1001. 20. 20. 2. 20. 20. 20. 2. 2. 200.
                20. 200. 2000. 2000. 200. 2000. 110. 200. 20. 110. 2. 2. 20. 2.
                20. 2. 110. 2000. 110. 20. 20. 20. 1001. 2000. 20. 200. 20. 20.
                200. 11. 110. 20. 1100. 200. 2. 2. 20. 1010. 2000. 2000. 200. 20.
                2. 200. 2000. 2. 2000. 20. 20. 20. 20. 1001. 20. 20. 2. 20. 2.
                2000. 20. 20. 110. 20. 2000. 2. 2000. 200. 20. 200. 20. 2000.
                1001. 2. 2000. 2000. 11. 1001. 2. 20. 2000. 110. 1010. 20. 20.
                2000. 2. 20. 20. 200. 200. 200. 2. 2000. 20. 20. 2000. 1001. 200.
                1001. 1001. 1001. 1001. 20. 2. 2000. 20. 20. 2. 1001. 200. 2000.
                2000. 200. 1001. 200. 2000. 2000. 1010. 110. 2. 20. 2000. 20. 20.
                1001. 200. 1010. 20. 2. 110. 110. 1001. 1001. 2000. 2000. 2000. 2.
                20. 2000. 200. 20. 200. 2000. 2. 1001. 1001. 110. 20. 2000. 200.
                2. 200. 1010. 2. 2000. 200. 20. 20. 20. 2000. 200. 200. 20. 2000.
                200. 1010. 110. 101. 2000. 1001. 200. 101. 1001. 200. 1001. 200.
                1001. 20. 2. 1100. 20. 200. 2000. 20. 11. 20. 200. 20. 20. 2. 2.
                110. 110. 1010. 1001. 1001. 110. 20. 101. 1001. 1001. 2000. 1100.
                110. 110. 110. 1010. 110. 2000. 200. 2. 2. 1100. 20. 1001. 1001.
                2000. 2. 2. 2000. 20. 2. 2. 200. 1001. 1010. 11. 110. 20. 1001.
                20. 110. 20. 2000. 20. 2. 2. 1001. 110. 110. 1001. 110. 20. 20. 2.
                2. 200. 2. 200. 20. 2. 1001. 1010. 1010. 1010. 20. 1001. 110.
                1001. 11. 2000. 2000. 2. 2. 200. 20. 2. 200. 200. 200. 20. 20.
                200. 11. 2000. 2000. 20. 2000. 200. 2000. 1001. 110. 20. 110. 110.
                110. 1001. 1001. 1001. 1001. 2. 110. 20. 2000. 2000. 20. 2. 1001.
                20. 2. 2. 1001. 2. 1100. 1001. 1001. 11. 11. 110. 101. 200. 20.
                20. 2000. 20. 2. 20. 11. 110. 20. 20. 200. 200. 200. 20. 2000.
                200. 110. 2000. 20. 200. 200. 2. 2. 200. 2. 1100. 2000. 2000. 200.
                2. 2000. 2. 200. 20. 1001. 1001. 1100. 2000. 200. 20. 2. 20. 2.
                2000. 2000. 20. 2. 20. 1001. 20. 1001. 110. 110. 110. 110. 2.
                2000. 2. 1010. 2000. 1010. 2000. 110. 110. 1100. 1001. 200. 2.
                2000. 2000. 2000. 2000. 110. 2000. 200. 11. 110. 2000. 200. 2.
                2000. 20. 20. 200. 2000. 200. 20. 200. 1001. 1001. 200. 1001. 110.
                2. 101. 110. 2. 20. 2000. 2. 2000. 20. 200. 110. 110. 11. 110.
                101. 200. 2000. 1001. 110. 1001. 110. 20. 2. 2. 20. 1010. 20. 110.
                2. 2. 200. 1001. 11. 1001. 11. 11. 110. 2. 2. 2000. 2. 2. 2000.
                1001. 2000. 1100. 20. 1001. 20. 2. 200. 110. 110. 20. 101. 101.
                20. 200. 2. 1001. 2. 2000. 20. 200. 200. 200. 2. 2000. 20. 2000.
                110. 11. 1001. 11. 1001. 110. 200. 101. 1001. 1001. 1010. 1001. 2.
                11. 1010. 1010. 110. 1001. 2. 1010. 2. 200. 200. 2. 110. 2. 2000.
                20. 2000. 11. 20. 1001. 20. 2. 110. 1001. 1010. 110. 1100. 1001.
                20. 20. 101. 2000. 20. 20. 2. 101. 110. 200. 110. 110. 1001. 1001.
                101. 2. 11. 2. 2000. 2. 20. 20. 110. 1001. 11. 20. 2. 110. 20. 2.
                20. 200. 110. 2000. 2. 2000. 2. 110. 1001. 1001. 110. 1010. 2.
                110. 20. 2. 2. 20. 200. 2000. 11. 2. 200. 2. 2000. 2. 20. 2. 200.
                2. 20. 1001. 20. 2000. 200. 20. 2. 2. 110. 110. 2. 2. 200. 20. 2.
                200. 2. 2000. 20. 200. 2000. 20. 2. 2000. 200. 2. 2. 1010. 20. 20.
                2. 2. 110. 1001. 20. 1100. 2. 2. 20. 2000. 2000. 2. 1001. 20.
                2000. 20. 20. 2000. 20. 200.
            </_>
            <_>
                2. 2000. 2000. 2000. 20. 2. 2. 110. 20. 2000. 2. 2. 2. 20. 20. 20.
                2000. 2. 20. 200. 2. 1010. 11. 11. 11. 101. 110. 1001. 20. 200.
                2000. 2. 200. 110. 110. 2000. 2. 20. 2000. 20. 1001. 20. 200. 200.
                20. 2000. 200. 20. 200. 20. 2. 1001. 101. 2000. 1100. 1001. 1001.
                110. 11. 200. 2000. 2. 2. 110. 110. 20. 2. 110. 2000. 20. 2000.
                200. 2. 20. 2000. 20. 200. 20. 200. 20. 20. 2. 2000. 20. 20. 2. 2.
                2. 200. 1001. 11. 20. 2. 20. 20. 20. 2. 2. 200. 20. 200. 2000.
                2000. 200. 2000. 110. 20. 200. 110. 2. 2. 20. 2. 20. 2. 20. 2000.
                20. 20. 20. 20. 2000. 1001. 110. 110. 110. 11. 200. 2. 20. 20.
                1100. 200. 2. 2. 2000. 20. 1001. 1100. 110. 110. 101. 101. 1100.
                1001. 1001. 1010. 110. 20. 110. 2. 110. 110. 2. 20. 2. 2000. 20.
                20. 200. 20. 2000. 2. 2000. 200. 20. 2. 20. 1001. 2000. 101. 2000.
                2. 2. 1001. 101. 1010. 2000. 20. 1010. 20. 20. 2000. 2. 20. 1010.
                110. 200. 200. 2. 2000. 20. 20. 2000. 1001. 110. 2000. 2000. 2000.
                2000. 1010. 2. 1001. 110. 1010. 2. 2. 101. 1001. 1001. 110. 2000.
                200. 2000. 2000. 1010. 110. 1001. 20. 2000. 20. 20. 2000. 200.
                1010. 20. 2. 20. 20. 2000. 2000. 2. 2. 20. 20. 2000. 2. 110. 2000.
                2000. 2. 1001. 2. 2. 20. 110. 1001. 200. 2. 110. 20. 2. 2000. 101.
                20. 20. 20. 2. 2. 110. 20. 2000. 200. 20. 200. 200. 2000. 2. 110.
                200. 2000. 20. 2. 110. 2. 20. 2. 200. 20. 20. 2. 110. 2. 20. 200.
                20. 20. 2. 2. 200. 200. 20. 2000. 2. 20. 20. 200. 1001. 1001.
                2000. 2000. 200. 110. 110. 1010. 110. 2. 110. 2. 2. 200. 20. 2. 2.
                2000. 2. 2. 2000. 20. 2. 2. 110. 2. 1010. 20. 20. 20. 2. 110. 200.
                1010. 2. 110. 1001. 1001. 2000. 110. 110. 1001. 110. 11. 200.
                2000. 2. 200. 2. 110. 110. 1001. 2. 20. 2000. 2000. 20. 1001. 110.
                2000. 20. 2000. 2000. 2. 2. 200. 20. 2. 200. 200. 200. 200. 11.
                110. 20. 2000. 2000. 20. 1001. 110. 2000. 1001. 110. 110. 110.
                110. 110. 1001. 2000. 2000. 2. 2. 20. 20. 2. 2000. 110. 2. 2000.
                20. 2. 2. 2. 2. 2000. 1001. 1001. 2. 11. 20. 200. 200. 20. 20.
                2000. 20. 2. 20. 20. 20. 20. 20. 20. 20. 2000. 200. 1001. 200. 20.
                1001. 20. 110. 110. 101. 1001. 101. 2. 200. 2000. 2000. 200. 2.
                2000. 2. 200. 20. 1001. 2. 1100. 2000. 200. 20. 1001. 2. 200.
                2000. 1001. 2000. 2. 20. 1001. 20. 1001. 200. 110. 110. 110. 2.
                1010. 2. 20. 1001. 1010. 2000. 110. 110. 1100. 1001. 200. 2. 2000.
                2000. 2000. 2000. 200. 2000. 20. 2. 110. 1010. 110. 2000. 20. 20.
                20. 200. 2000. 200. 20. 200. 2000. 2000. 101. 2000. 200. 2. 101.
                110. 2. 20. 2000. 2. 2000. 20. 101. 20. 20. 11. 200. 101. 20.
                2000. 2. 20. 2. 110. 20. 2. 2. 20. 2000. 20. 200. 11. 101. 1100.
                1001. 2. 2. 20. 2. 200. 2. 2. 1001. 1001. 200. 1001. 2000. 2000.
                1100. 20. 2000. 20. 2. 200. 110. 110. 11. 200. 2. 11. 101. 1001.
                2000. 2. 2000. 20. 200. 110. 110. 2. 2. 20. 2000. 110. 11. 1001.
                20. 1001. 110. 2000. 200. 1001. 1001. 1010. 1001. 1001. 20. 2000.
                2000. 20. 2000. 2. 20. 2000. 200. 110. 1001. 110. 2. 2000. 110.
                1001. 20. 20. 2. 20. 2. 20. 2. 2000. 20. 200. 2. 1010. 110. 101.
                1001. 20. 20. 2. 200. 20. 200. 110. 20. 2. 1001. 101. 2. 11. 1001.
                2000. 2. 20. 20. 200. 1001. 11. 20. 2. 110. 20. 1001. 110. 1100.
                110. 1001. 2. 1001. 11. 110. 2000. 2000. 200. 20. 2. 20. 20. 2.
                20. 200. 200. 20. 2. 2. 20. 2000. 200. 2000. 110. 1001. 200. 1001.
                110. 2000. 20. 2000. 200. 20. 20. 2000. 110. 110. 2. 2. 200. 20.
                2. 200. 2. 1001. 20. 110. 1010. 20. 1001. 1001. 200. 2. 2. 2000.
                20. 20. 1001. 1001. 200. 1001. 110. 1100. 2. 1001. 2. 2. 2000.
                1001. 2. 20. 2000. 20. 20. 2. 110. 110.
            </_>
            <_>
                2. 2000. 2000. 2000. 20. 2. 2. 110. 20. 2000. 2. 101. 2. 110. 110.
                20. 2000. 2. 20. 200. 2. 1010. 2. 11. 11. 101. 110. 1001. 11. 110.
                2000. 2. 200. 20. 20. 2000. 200. 20. 2000. 20. 2000. 110. 200.
                200. 20. 2000. 200. 20. 200. 11. 1001. 2. 101. 2000. 2000. 2. 2.
                200. 20. 200. 2000. 2. 11. 110. 110. 20. 11. 20. 2000. 2. 2000.
                110. 2. 110. 1010. 110. 110. 110. 200. 20. 110. 2. 2000. 20. 20.
                2. 2. 2. 200. 2. 2. 20. 2. 20. 20. 20. 2. 2. 101. 1010. 110. 1001.
                1001. 110. 2000. 200. 110. 110. 110. 101. 2. 110. 1001. 110. 1001.
                110. 2000. 20. 20. 20. 20. 1001. 1001. 110. 110. 200. 20. 200. 2.
                20. 20. 2000. 110. 1001. 2. 20. 1010. 2. 200. 20. 200. 200. 2.
                200. 2000. 2. 2000. 200. 110. 110. 2. 200. 200. 101. 20. 2. 2000.
                20. 20. 200. 20. 2. 200. 2. 20. 2. 101. 20. 1001. 2000. 101. 2000.
                2. 11. 2000. 2. 20. 1001. 20. 20. 20. 20. 2000. 2. 20. 20. 200.
                200. 200. 2. 2000. 20. 20. 1001. 1001. 200. 1001. 2000. 1001.
                1001. 1010. 2. 2. 200. 2000. 2. 1001. 101. 1001. 1001. 110. 1001.
                200. 2000. 2000. 1010. 110. 1001. 20. 2000. 20. 20. 1001. 20.
                1010. 20. 2. 20. 110. 1001. 1001. 1001. 1001. 1010. 11. 20. 2000.
                200. 20. 200. 2000. 2. 2. 2. 20. 110. 2000. 200. 2. 200. 20. 2000.
                1001. 2. 20. 20. 20. 1001. 101. 110. 2. 2000. 200. 1010. 110. 101.
                2000. 2. 110. 101. 2000. 110. 2000. 110. 1001. 110. 1001. 200. 20.
                110. 1001. 200. 2. 20. 200. 20. 20. 2. 2. 110. 110. 1010. 1001.
                1001. 110. 20. 101. 2. 2. 2000. 1100. 110. 110. 110. 2000. 200.
                2000. 200. 2. 2000. 2000. 20. 2000. 1001. 2000. 1001. 11. 2000.
                20. 101. 1001. 110. 1001. 1010. 20. 20. 20. 1001. 110. 200. 2000.
                2. 200. 2000. 2000. 2000. 200. 200. 2. 200. 2. 20. 2. 2. 200. 2.
                20. 200. 2000. 1001. 1010. 1010. 1010. 110. 2000. 110. 2. 2. 1001.
                1001. 1001. 1001. 110. 110. 1001. 1100. 200. 200. 110. 11. 200.
                20. 2000. 2000. 20. 1001. 20. 2000. 1001. 110. 110. 110. 110. 110.
                1001. 1001. 1001. 1001. 101. 110. 20. 2000. 2000. 110. 2. 1001.
                20. 2. 2. 2000. 2. 2000. 1001. 1001. 11. 11. 110. 101. 110. 110.
                110. 1001. 110. 1001. 110. 11. 200. 20. 20. 110. 110. 1100. 110.
                2000. 200. 110. 1001. 20. 110. 110. 101. 1001. 101. 2. 2000. 2000.
                2000. 200. 2. 2000. 2. 200. 20. 1001. 1001. 1100. 1001. 200. 20.
                1001. 11. 101. 2000. 2000. 1010. 2. 20. 2. 20. 2000. 200. 200. 20.
                200. 2. 2000. 2. 1010. 2. 1010. 2000. 110. 110. 1100. 2. 200. 11.
                1001. 1010. 1010. 1100. 110. 2000. 20. 11. 20. 1010. 200. 1001.
                1010. 20. 20. 200. 2000. 200. 110. 200. 2000. 1001. 101. 1001.
                110. 1001. 200. 20. 11. 110. 1100. 101. 1001. 20. 200. 110. 110.
                11. 200. 2. 200. 2000. 2. 20. 2. 20. 20. 2. 2. 110. 2000. 20. 110.
                11. 101. 1100. 2000. 20. 2000. 2. 20. 110. 1001. 2. 2000. 2. 2.
                1001. 2000. 1100. 2000. 20. 2000. 20. 2. 1100. 20. 200. 20. 2. 2.
                2. 2. 2000. 2. 2. 1001. 110. 200. 200. 200. 2. 1001. 110. 2000.
                110. 11. 1001. 11. 1001. 110. 200. 101. 2. 2. 2000. 2000. 2. 11.
                1010. 1010. 110. 1001. 2. 1010. 2000. 101. 110. 1001. 20. 2. 2000.
                20. 2000. 20. 20. 2. 20. 2. 110. 1001. 1010. 110. 1100. 1001. 20.
                110. 101. 1001. 20. 20. 2. 200. 20. 1100. 20. 200. 2000. 2. 2. 2.
                20. 2. 2000. 2. 20. 20. 200. 2000. 2. 20. 2. 110. 20. 2000. 200.
                2000. 20. 2. 2. 2000. 2. 20. 2000. 2000. 200. 20. 2. 20. 20. 2.
                20. 200. 200. 2000. 2. 2. 200. 2. 2000. 2. 110. 2000. 20. 1001.
                110. 1001. 20. 2000. 200. 20. 11. 1001. 20. 200. 2. 2. 200. 20. 2.
                200. 2. 2000. 110. 200. 2000. 110. 2000. 2. 200. 2. 2. 2000. 20.
                20. 2. 2. 110. 2. 110. 2000. 20. 2. 11. 1001. 1001. 1001. 2. 20.
                1001. 20. 20. 1001. 20. 200.
            </_>
            <_>
                1001. 2000. 2000. 2000. 20. 2. 2. 200. 20. 2000. 2. 2. 2. 200.
                110. 20. 2000. 2. 20. 200. 2. 2000. 2. 11. 2. 101. 110. 1001. 20.
                200. 1001. 1001. 200. 20. 20. 2000. 101. 200. 2. 200. 2. 20. 200.
                200. 20. 2000. 200. 20. 200. 11. 1001. 2. 2. 2000. 2000. 2. 2.
                200. 20. 200. 2000. 2. 11. 20. 200. 20. 11. 20. 2000. 2. 2000.
                110. 1001. 20. 2000. 20. 200. 20. 200. 20. 20. 2. 1001. 1010. 110.
                1001. 1001. 1001. 110. 1001. 11. 20. 2. 20. 20. 20. 2. 2. 200. 20.
                200. 2000. 1001. 110. 2000. 20. 110. 110. 110. 2. 2. 20. 2. 20. 2.
                20. 2000. 20. 20. 20. 20. 2000. 1001. 110. 110. 110. 20. 200. 2.
                110. 20. 1100. 200. 2. 2. 1010. 1010. 2. 200. 20. 200. 200. 2.
                200. 2000. 2. 2000. 200. 110. 110. 2. 20. 20. 2. 20. 2. 2000. 20.
                20. 110. 20. 2000. 2. 1001. 110. 20. 101. 20. 1001. 2000. 2. 2000.
                1001. 11. 1001. 2. 20. 2000. 20. 2000. 20. 20. 1100. 1001. 110.
                1010. 200. 200. 200. 2. 2000. 11. 20. 1001. 2. 200. 2000. 1001.
                1001. 1001. 20. 2. 2. 200. 2000. 2. 2. 2. 2. 2. 20. 2. 200. 1001.
                1001. 1010. 110. 1001. 20. 2000. 20. 20. 1001. 200. 1010. 20. 2.
                20. 20. 2000. 2000. 2000. 2000. 2000. 2. 20. 2000. 200. 20. 200.
                2000. 2. 2. 2. 20. 110. 2. 200. 1001. 200. 20. 1001. 1001. 101.
                110. 20. 20. 2. 2. 20. 2. 1001. 110. 2000. 20. 2. 2000. 1001. 110.
                101. 2000. 20. 2000. 200. 2000. 200. 1001. 200. 110. 110. 1001.
                20. 2. 110. 200. 20. 20. 2. 2. 110. 110. 1010. 1001. 1001. 110.
                20. 101. 1001. 1001. 2000. 200. 110. 20. 20. 20. 20. 1001. 200.
                1001. 2. 1100. 110. 1001. 1001. 2000. 2000. 11. 1001. 110. 101.
                1001. 200. 2. 2000. 20. 20. 20. 1001. 110. 200. 20. 1001. 20. 2.
                2. 2000. 110. 110. 1001. 110. 11. 110. 1001. 2. 200. 2. 110. 20.
                1001. 2000. 2000. 20. 20. 110. 2000. 200. 1001. 11. 2. 2. 2000.
                2000. 20. 200. 2000. 2000. 200. 200. 110. 2. 20. 20. 1001. 1001.
                200. 1001. 20. 1010. 2000. 200. 20. 20. 20. 20. 2. 2. 2. 2000. 2.
                20. 20. 1001. 2000. 110. 2. 1001. 20. 2. 101. 2. 101. 200. 1001.
                1001. 11. 11. 110. 101. 110. 110. 110. 2. 110. 1001. 110. 2. 20.
                20. 20. 20. 20. 2000. 200. 2000. 110. 20. 1001. 20. 110. 110. 101.
                1001. 2. 2. 2000. 2000. 2000. 200. 2. 2000. 2. 200. 20. 1001.
                1001. 1100. 1001. 200. 20. 1001. 2. 200. 2000. 1001. 2000. 2. 20.
                2. 20. 2000. 200. 200. 20. 200. 2. 2000. 2. 1010. 1001. 2000. 20.
                20. 20. 200. 2. 200. 2. 2000. 2000. 2000. 2000. 200. 1001. 110. 2.
                20. 2000. 200. 2. 2000. 110. 20. 110. 2000. 200. 20. 200. 2000. 2.
                200. 2. 20. 2. 200. 20. 2. 20. 2000. 2. 1001. 200. 2. 110. 110. 2.
                200. 101. 200. 2000. 1001. 110. 2. 20. 20. 2. 2. 110. 1010. 20.
                110. 11. 101. 1100. 1001. 20. 2000. 11. 11. 200. 1001. 2. 2000. 2.
                101. 2000. 2000. 1100. 1100. 20. 2000. 20. 2. 200. 110. 110. 11.
                2. 2. 11. 101. 1001. 2000. 2. 2000. 20. 200. 110. 200. 2. 1001.
                110. 1001. 200. 2. 2000. 2. 2. 200. 2000. 2. 2000. 2000. 20. 2.
                1001. 2. 20. 20. 110. 1001. 1001. 1010. 1001. 101. 110. 1001. 20.
                2. 1001. 110. 2000. 11. 20. 1001. 110. 2. 20. 2. 2000. 20. 200. 2.
                1010. 110. 101. 1001. 20. 20. 2. 200. 20. 1100. 20. 110. 1001. 2.
                2. 2. 20. 2. 2000. 2. 20. 20. 110. 2000. 2. 200. 2000. 200. 20. 2.
                20. 200. 110. 2000. 2. 2000. 2. 110. 2000. 2000. 200. 20. 2. 110.
                20. 2. 20. 200. 200. 1010. 11. 2. 200. 2. 2000. 1001. 200. 1001.
                200. 2000. 110. 1001. 20. 2000. 200. 20. 20. 1001. 20. 200. 2. 2.
                200. 20. 2. 20. 11. 1001. 20. 200. 2000. 200. 2000. 2000. 200. 2.
                2. 1010. 110. 20. 2. 2. 110. 1001. 20. 1100. 20. 2. 20. 2000.
                2000. 2. 2. 20. 2000. 20. 20. 2. 110. 110.
            </_>
            <_>
                2. 2000. 2000. 2000. 20. 2. 2. 110. 20. 2000. 2. 2. 2. 110. 110.
                20. 2000. 2. 20. 200. 1001. 2000. 11. 2. 11. 101. 110. 2. 20. 200.
                2000. 1001. 200. 20. 20. 2000. 200. 110. 1001. 110. 2000. 20. 200.
                200. 20. 2000. 200. 20. 200. 20. 2000. 2. 101. 1001. 1100. 1001.
                1001. 200. 11. 110. 1001. 2. 20. 20. 200. 110. 2. 110. 1001. 2.
                2000. 110. 2. 110. 1010. 110. 110. 110. 200. 20. 110. 2. 2. 2000.
                200. 2000. 2000. 2000. 20. 2000. 11. 20. 2. 20. 20. 20. 2. 2. 2.
                20. 200. 2000. 2000. 200. 2000. 20. 110. 110. 20. 101. 2. 20. 2.
                20. 2. 110. 2000. 20. 20. 20. 1010. 2000. 1001. 110. 110. 200. 20.
                200. 2. 20. 20. 2000. 110. 1001. 2. 1010. 1010. 1001. 1100. 110.
                110. 101. 101. 1100. 1001. 1001. 1010. 110. 110. 110. 2. 110. 110.
                2. 20. 2. 2000. 20. 20. 110. 20. 2000. 2. 2000. 200. 20. 101.
                1010. 2000. 2. 200. 2000. 1001. 2. 2000. 2. 1010. 2000. 110. 1010.
                110. 110. 1100. 1001. 110. 20. 110. 110. 110. 2. 2000. 20. 20.
                2000. 1001. 200. 1001. 2000. 1001. 1001. 1010. 2. 2. 200. 2000. 2.
                1001. 2. 2. 2. 20. 2. 200. 1001. 1001. 20. 110. 1001. 20. 2000.
                20. 20. 2000. 110. 20. 20. 2. 20. 110. 2. 2. 1001. 1001. 1010. 11.
                1010. 1001. 110. 1010. 1100. 1001. 1001. 1001. 1001. 110. 20.
                2000. 110. 2. 20. 1010. 2. 2000. 200. 20. 20. 20. 1001. 101. 20.
                20. 1001. 20. 1010. 110. 101. 2000. 1001. 200. 200. 2000. 110.
                1001. 110. 1001. 110. 1001. 2000. 20. 200. 2000. 20. 11. 110. 200.
                110. 110. 101. 101. 110. 110. 1010. 1001. 1001. 110. 200. 200. 2.
                2. 1100. 2000. 200. 200. 200. 20. 20. 2. 110. 1001. 2. 1100. 110.
                1001. 1001. 2000. 1001. 11. 2000. 110. 101. 1001. 20. 2000. 20.
                20. 20. 20. 2000. 20. 200. 20. 1001. 20. 2. 2. 2000. 110. 110.
                1001. 110. 11. 20. 2. 2. 200. 2. 110. 200. 2000. 2. 20. 2000.
                2000. 20. 1001. 200. 2. 2. 2000. 2000. 2. 2. 200. 20. 2. 200. 200.
                200. 110. 11. 110. 11. 2000. 2000. 20. 2. 110. 1010. 1001. 110.
                110. 20. 20. 20. 2. 2. 2. 2000. 101. 110. 110. 1001. 1001. 110. 2.
                2000. 20. 2. 2. 2000. 101. 2000. 2. 2000. 2. 20. 20. 200. 110.
                110. 110. 1001. 20. 2. 20. 11. 110. 20. 20. 110. 110. 1100. 110.
                2000. 110. 20. 1001. 20. 200. 200. 2. 2. 2. 2. 1100. 1001. 1001.
                110. 1001. 2000. 2. 200. 20. 1001. 2. 1100. 2000. 200. 20. 2. 11.
                101. 2000. 1001. 2000. 2. 20. 2. 20. 2. 20. 20. 200. 20. 2. 2000.
                2. 20. 2000. 20. 2000. 20. 20. 1100. 2000. 200. 2. 2000. 2000.
                2000. 2000. 110. 2000. 20. 11. 20. 20. 200. 2. 2000. 20. 20. 200.
                2000. 200. 20. 200. 1001. 1001. 200. 1001. 110. 2. 200. 20. 2. 20.
                2000. 2. 1001. 110. 101. 200. 200. 20. 200. 2. 110. 2000. 2. 20.
                2. 20. 20. 2. 2. 20. 2000. 20. 200. 11. 2. 1100. 2. 20. 2000. 2.
                2. 110. 1001. 2. 1001. 1001. 101. 1001. 2000. 2000. 1100. 110.
                1001. 110. 1001. 1100. 20. 200. 2. 2. 2. 2. 2. 2000. 2000. 2.
                1001. 110. 110. 200. 200. 2. 2000. 110. 2000. 110. 11. 1001. 11.
                1001. 110. 200. 101. 1001. 1001. 1010. 1001. 2. 2. 20. 20. 200.
                1001. 1001. 1010. 1001. 200. 200. 2. 20. 2. 1001. 110. 2000. 11.
                20. 1001. 110. 2. 20. 2. 2000. 20. 200. 2. 20. 110. 101. 1001. 20.
                20. 2. 200. 110. 200. 20. 110. 1001. 1001. 101. 2. 11. 1001. 2000.
                2. 20. 20. 200. 1001. 11. 20. 2. 200. 11. 1001. 110. 1100. 110.
                1001. 2. 2000. 2. 200. 2. 2. 20. 1010. 2. 110. 110. 11. 11. 110.
                110. 2000. 2. 1001. 20. 2000. 200. 2000. 200. 2. 200. 2000. 200.
                2. 20. 2000. 200. 20. 11. 1001. 20. 200. 1001. 1001. 200. 20. 2.
                200. 2. 1001. 20. 110. 1010. 200. 2000. 2. 200. 2. 2. 2000. 20.
                20. 1001. 1001. 110. 2. 20. 2000. 11. 1001. 11. 1001. 1001. 2.
                1001. 20. 1001. 20. 20. 2000. 20. 200.
            </_>
            <_>
                1001. 2000. 2000. 2000. 20. 2. 1001. 200. 110. 1001. 2. 2. 1001.
                110. 110. 110. 1001. 101. 110. 200. 2. 2000. 11. 20. 2. 2. 110.
                1001. 20. 200. 2000. 1001. 110. 20. 20. 1001. 2. 110. 1001. 110.
                2000. 20. 200. 200. 20. 2000. 200. 20. 200. 11. 1001. 2. 101. 2.
                1100. 1001. 1001. 110. 11. 110. 1001. 2. 20. 110. 110. 20. 2. 20.
                2000. 0. 2000. 110. 1001. 110. 2000. 20. 200. 20. 200. 20. 20. 2.
                2000. 20. 20. 2. 2. 2. 200. 2000. 2. 110. 1001. 1010. 11. 110.
                1001. 1001. 101. 20. 200. 2000. 2. 20. 2000. 110. 110. 110. 110.
                200. 2. 20. 2. 20. 2. 20. 2000. 200. 20. 20. 2000. 2000. 2000. 20.
                200. 20. 20. 200. 2. 200. 20. 2000. 110. 1001. 1001. 20. 20. 2.
                200. 20. 200. 200. 2. 200. 2000. 2. 2000. 200. 20. 200. 2. 20. 20.
                2. 20. 2. 2000. 20. 20. 110. 20. 2000. 2. 2000. 200. 20. 2. 20.
                1001. 2000. 2. 2000. 2000. 11. 1001. 101. 1010. 2000. 110. 2000.
                20. 20. 200. 2. 20. 20. 110. 110. 110. 1001. 2000. 20. 20. 2000.
                2. 110. 2000. 2000. 1001. 1001. 20. 2. 1001. 110. 1010. 2. 1001.
                2. 2. 2. 20. 1001. 110. 1001. 1001. 1010. 110. 2000. 110. 1001.
                110. 20. 2. 110. 1010. 20. 2. 20. 20. 2000. 2000. 2. 2. 20. 20.
                2000. 2. 110. 2000. 2000. 2. 1001. 2. 2. 20. 20. 2000. 200. 2.
                200. 20. 2000. 2000. 2. 20. 20. 200. 1001. 101. 200. 11. 2. 20.
                2000. 20. 2. 2000. 2. 200. 200. 2000. 110. 2000. 200. 2000. 200.
                2. 200. 20. 200. 2000. 20. 20. 110. 1100. 110. 110. 101. 101. 110.
                110. 1010. 1001. 1001. 110. 110. 200. 2. 2. 2000. 1100. 200. 110.
                110. 1010. 110. 1001. 110. 1001. 2. 1100. 20. 2000. 1001. 2000.
                1001. 20. 2000. 110. 200. 2000. 110. 2. 1010. 20. 20. 20. 2. 20.
                200. 20. 1001. 20. 2. 2. 2000. 110. 110. 1001. 110. 11. 110. 1001.
                2. 110. 2. 110. 110. 1001. 1001. 1010. 1010. 1010. 20. 2000. 110.
                1001. 11. 2. 2. 2000. 2000. 20. 200. 2000. 200. 200. 1100. 110.
                20. 200. 11. 2000. 2000. 20. 2000. 200. 2000. 1001. 110. 20. 20.
                20. 20. 2. 2. 2. 2000. 101. 110. 20. 2. 2000. 110. 2. 1001. 110.
                2. 2. 2000. 200. 200. 2000. 2. 11. 2. 20. 101. 110. 110. 110.
                1001. 110. 1001. 110. 11. 200. 20. 20. 200. 200. 2000. 20. 2000.
                110. 200. 2. 20. 20. 20. 200. 2000. 2. 0. 200. 2000. 2000. 20.
                2000. 2000. 2. 200. 110. 1001. 1001. 1100. 1001. 200. 20. 1001.
                11. 101. 2000. 2000. 1010. 2. 20. 1001. 20. 1001. 110. 110. 110.
                110. 2. 2000. 2. 1010. 1001. 1010. 2000. 20. 20. 200. 1001. 200.
                2. 2000. 2000. 2000. 2000. 200. 2000. 20. 20. 110. 1010. 200. 2.
                2000. 20. 20. 110. 2000. 200. 20. 200. 2000. 2. 200. 1001. 110. 2.
                200. 20. 2. 20. 2000. 101. 1001. 110. 101. 200. 200. 11. 200. 2.
                110. 2000. 2. 20. 2. 110. 110. 1001. 2. 20. 20. 20. 20. 2. 2. 200.
                1001. 20. 2000. 2. 2. 20. 2. 0. 2000. 2. 101. 2000. 2000. 1100.
                200. 20. 2. 200. 2000. 200. 110. 110. 20. 101. 200. 2. 2. 2000.
                2000. 101. 2000. 20. 110. 200. 110. 2. 1001. 20. 2000. 20. 20. 2.
                20. 1001. 110. 1100. 2. 1001. 1001. 1010. 1001. 2000. 20. 2000.
                2000. 20. 2000. 2. 20. 2000. 200. 200. 2. 110. 2. 2000. 20. 2. 11.
                1010. 1001. 110. 1001. 110. 1001. 1010. 110. 1100. 1001. 1010. 20.
                200. 2. 20. 20. 2. 200. 20. 200. 20. 200. 2000. 2. 2. 2. 2. 2.
                2000. 2. 20. 20. 200. 1001. 11. 110. 1001. 200. 2. 2000. 200.
                2000. 20. 2. 2. 2000. 2. 110. 1001. 1001. 110. 20. 2. 200. 110.
                11. 20. 200. 200. 2000. 2. 1001. 110. 1001. 1100. 1001. 200. 2.
                200. 2000. 200. 2000. 20. 2000. 200. 20. 20. 2000. 20. 200. 1001.
                1001. 101. 110. 1001. 20. 20. 2000. 20. 200. 2000. 110. 1001.
                1001. 101. 1001. 1001. 1010. 110. 20. 2. 2. 110. 1001. 110. 1100.
                2. 2. 20. 2000. 2000. 2. 2. 20. 2000. 11. 110. 1001. 110. 110.
            </_>
            <_>
                2. 2000. 2000. 2000. 20. 2. 2. 20. 20. 2000. 2. 2. 2. 110. 110.
                20. 2000. 2. 20. 200. 1001. 2000. 20. 11. 11. 101. 110. 1001. 11.
                110. 2. 2. 200. 20. 20. 2000. 101. 20. 1001. 20. 2000. 20. 200.
                200. 20. 2000. 200. 20. 200. 20. 2. 2. 200. 1001. 1100. 2. 2. 200.
                20. 110. 1001. 2. 20. 110. 110. 20. 11. 20. 2000. 2. 2000. 200. 2.
                20. 1010. 110. 110. 110. 110. 20. 20. 2. 1001. 20. 20. 2. 2. 2.
                200. 1001. 20. 20. 2. 20. 20. 20. 2. 2. 200. 1010. 110. 1001.
                1001. 110. 2000. 110. 110. 110. 200. 200. 2. 110. 2. 20. 2. 110.
                2000. 20. 20. 20. 20. 2000. 2000. 20. 200. 20. 20. 1100. 11. 200.
                20. 200. 110. 1001. 2. 20. 20. 2. 200. 20. 200. 200. 2. 200. 2000.
                2. 2000. 200. 110. 110. 2. 20. 20. 101. 20. 2. 2000. 20. 20. 110.
                20. 1001. 2. 2000. 200. 20. 101. 1010. 1001. 2000. 2. 2000. 2. 2.
                2000. 101. 2000. 2000. 20. 20. 110. 110. 1100. 1001. 110. 1010.
                110. 110. 110. 2. 2000. 11. 20. 1001. 2000. 200. 2000. 2000. 1001.
                1001. 20. 2. 1001. 110. 1010. 2. 1001. 2. 2. 2. 20. 2000. 200.
                2000. 2000. 1010. 20. 2000. 20. 2000. 20. 20. 1001. 110. 20. 20.
                2. 110. 110. 2. 2. 2. 2. 20. 20. 2000. 2. 200. 2000. 2000. 2. 2.
                1001. 1001. 110. 20. 2000. 110. 2. 110. 2000. 2. 2000. 101. 20.
                20. 20. 2. 2. 20. 2. 1001. 110. 1010. 110. 101. 1001. 2. 200. 101.
                2000. 20. 2000. 200. 2. 20. 2. 1100. 110. 20. 2. 110. 11. 110.
                200. 110. 110. 101. 101. 200. 200. 20. 2000. 2. 20. 20. 101. 2. 2.
                2000. 1100. 200. 200. 200. 1010. 110. 1001. 200. 1001. 2000. 1100.
                20. 1001. 2. 2000. 2000. 2. 2000. 20. 2. 2. 20. 1001. 1010. 20.
                20. 2. 1001. 20. 200. 20. 2000. 20. 2. 2. 2000. 20. 20. 2000. 20.
                2. 20. 2. 2. 200. 2. 110. 110. 2000. 2. 20. 2000. 2000. 20. 2.
                200. 1001. 11. 2000. 2000. 2. 2. 200. 20. 2. 200. 200. 200. 110.
                11. 200. 20. 2000. 2000. 20. 2. 110. 2000. 1001. 110. 20. 110.
                110. 110. 1001. 1001. 1001. 1001. 2. 20. 20. 2. 2000. 20. 1001.
                2000. 20. 2. 2. 1001. 101. 2000. 1001. 1001. 11. 11. 110. 2. 20.
                200. 200. 2. 200. 2000. 200. 11. 20. 20. 20. 200. 200. 200. 20.
                2000. 200. 20. 2. 20. 200. 200. 2. 2. 200. 2. 1100. 2000. 2000.
                200. 2. 2000. 2. 200. 20. 1001. 2. 2000. 2000. 200. 20. 2. 20. 2.
                2000. 2000. 20. 2. 20. 1001. 20. 2. 110. 110. 110. 110. 2. 1010.
                2. 20. 1001. 1010. 1010. 20. 110. 200. 1001. 200. 2. 2000. 2000.
                2000. 2000. 200. 1001. 20. 2. 110. 1010. 200. 1001. 1010. 20. 20.
                200. 2000. 200. 20. 200. 2000. 2000. 200. 2000. 200. 2. 200. 20.
                2. 20. 2000. 2. 2000. 20. 200. 20. 20. 2. 200. 2. 20. 2000. 2000.
                110. 1001. 20. 110. 1001. 2. 20. 1010. 20. 110. 2. 2. 200. 2. 20.
                2000. 2. 11. 200. 2. 2. 1001. 1001. 2. 2000. 2000. 2000. 200. 20.
                1001. 110. 1001. 1100. 110. 20. 20. 2. 101. 2. 2. 2000. 1001. 101.
                2000. 20. 200. 200. 110. 2. 1001. 20. 2000. 200. 2. 2000. 11.
                1001. 110. 2000. 200. 1001. 1001. 1010. 1001. 2. 20. 2000. 2000.
                20. 2000. 2. 20. 2000. 101. 200. 2. 20. 2. 2000. 20. 1001. 11. 20.
                1001. 110. 2. 110. 1001. 1010. 110. 1100. 1001. 20. 20. 200. 2.
                20. 20. 2. 200. 110. 200. 20. 110. 1001. 1001. 101. 1001. 11.
                1001. 2000. 2. 20. 20. 200. 2000. 2. 20. 2. 110. 20. 2000. 200.
                2000. 20. 2. 2. 2000. 2. 110. 2000. 2000. 200. 20. 2. 20. 20. 11.
                20. 200. 110. 2000. 11. 2. 200. 1001. 1100. 1001. 110. 2. 200.
                1001. 110. 2000. 20. 2000. 200. 20. 2. 1001. 110. 110. 1001. 1001.
                101. 110. 2. 20. 11. 1001. 20. 200. 2000. 110. 1001. 1001. 200. 2.
                2. 2000. 20. 20. 1001. 1001. 110. 1001. 110. 2000. 11. 2. 20.
                2000. 2000. 2. 2. 110. 1001. 20. 20. 2000. 20. 200.
            </_>
            <_>
                2. 2. 2. 2. 200. 200. 2. 200. 20. 2000. 2. 101. 2. 20. 20. 20.
                2000. 2. 20. 200. 2. 2000. 11. 11. 11. 101. 110. 2000. 2. 20.
                1001. 2. 110. 200. 110. 2000. 101. 200. 2. 200. 1001. 20. 200.
                200. 20. 2000. 200. 20. 200. 11. 2. 2. 200. 2000. 1100. 1001.
                1001. 200. 11. 110. 1001. 2. 11. 110. 110. 110. 11. 20. 1001. 2.
                1001. 200. 2. 20. 2000. 20. 200. 20. 200. 20. 20. 2. 1001. 1010.
                110. 1001. 1001. 1001. 110. 2000. 2. 20. 2. 20. 20. 20. 2. 2. 200.
                20. 200. 2000. 2000. 200. 1001. 110. 20. 200. 110. 101. 2. 20. 2.
                20. 2. 110. 2000. 20. 20. 20. 20. 2000. 2000. 110. 110. 110. 20.
                200. 2. 200. 20. 2000. 200. 2. 2. 20. 20. 2. 200. 20. 200. 200. 2.
                200. 2000. 2. 2000. 200. 110. 110. 2. 110. 110. 101. 20. 2. 2000.
                20. 20. 110. 20. 1001. 101. 1001. 110. 11. 101. 20. 1001. 1001.
                101. 1001. 2. 11. 2000. 200. 2000. 2000. 20. 1010. 20. 20. 1100.
                1001. 110. 20. 110. 200. 200. 2. 2000. 20. 20. 2. 1001. 200. 1001.
                1001. 2000. 2000. 20. 2. 1001. 110. 1010. 2. 2000. 2. 2. 2. 20. 2.
                110. 1001. 1001. 1010. 200. 2000. 20. 2000. 20. 20. 1001. 110. 20.
                20. 2. 110. 110. 1001. 1001. 2000. 2000. 2000. 2. 20. 2000. 200.
                20. 200. 2000. 2. 1001. 1001. 110. 20. 1001. 110. 2. 110. 1010. 2.
                2000. 200. 20. 20. 20. 1001. 101. 110. 20. 2. 20. 2000. 20. 2.
                2000. 1001. 200. 101. 2000. 20. 2000. 110. 2. 20. 2. 1100. 110.
                20. 2. 20. 11. 20. 1100. 110. 110. 101. 101. 110. 110. 1010. 1001.
                1001. 110. 20. 101. 2. 2. 1100. 1100. 110. 110. 110. 20. 20. 1001.
                200. 2. 2. 2000. 110. 2000. 1001. 1100. 2000. 11. 2000. 20. 101.
                1001. 110. 2000. 20. 20. 20. 20. 2000. 20. 200. 20. 1001. 20. 2.
                2. 1001. 20. 20. 2000. 20. 11. 20. 2. 2. 110. 2. 200. 200. 2000.
                2. 20. 2000. 1010. 20. 1001. 110. 1001. 11. 2000. 2000. 2. 2. 200.
                110. 2. 200. 101. 200. 200. 11. 200. 11. 2000. 2000. 20. 2. 110.
                2000. 1001. 110. 20. 20. 20. 20. 2. 2. 1001. 1001. 200. 200. 200.
                2000. 2. 20. 2. 1001. 20. 2. 101. 2. 101. 200. 2000. 2. 20. 2. 20.
                200. 200. 20. 20. 2000. 20. 2. 20. 20. 20. 20. 20. 110. 110. 1100.
                200. 2000. 110. 20. 1001. 20. 200. 200. 2. 2. 101. 2. 200. 2000.
                2000. 200. 2. 2000. 2. 200. 20. 1001. 2. 2000. 1001. 110. 110. 2.
                11. 101. 1010. 1001. 1010. 2. 20. 2. 20. 2000. 200. 200. 20. 200.
                2. 1010. 2. 1010. 1001. 1010. 2000. 110. 110. 1100. 2. 200. 11.
                1001. 1010. 1010. 1100. 20. 1001. 20. 2. 110. 1010. 200. 2. 2000.
                110. 110. 200. 1001. 110. 20. 200. 2000. 1001. 200. 1001. 110. 2.
                2. 200. 2. 20. 2000. 2. 2. 200. 2. 200. 200. 11. 110. 2. 110.
                2000. 1001. 110. 1001. 20. 20. 2. 2. 20. 1010. 20. 20. 2. 2. 200.
                1001. 20. 2000. 2. 20. 110. 2. 2. 2000. 2. 2. 1001. 2000. 1100.
                2000. 20. 2000. 20. 2. 1100. 20. 200. 20. 2. 101. 20. 200. 2.
                2000. 2. 2000. 20. 200. 110. 200. 2. 2. 20. 2000. 20. 20. 2. 20.
                2000. 20. 1100. 2. 2. 2. 2000. 2000. 1001. 20. 2000. 2000. 20.
                1001. 2. 1010. 1001. 101. 110. 1001. 20. 2. 2000. 110. 2000. 11.
                20. 2000. 200. 2. 110. 1001. 1010. 110. 1100. 1001. 20. 110. 101.
                1001. 20. 20. 2. 200. 110. 200. 200. 110. 1001. 2. 2. 2. 20. 2.
                2000. 2. 20. 20. 110. 1001. 11. 20. 2. 110. 11. 1001. 110. 1100.
                110. 1001. 2. 2000. 2. 110. 1001. 1001. 110. 20. 2. 110. 110. 11.
                11. 110. 200. 2000. 11. 2. 200. 2. 2000. 2. 200. 2000. 200. 2000.
                200. 1001. 20. 2000. 200. 20. 11. 1001. 110. 110. 1001. 1001. 200.
                20. 2. 200. 2. 1001. 110. 200. 1010. 200. 2000. 2. 200. 2. 2.
                2000. 20. 20. 2. 2. 200. 2000. 200. 2000. 11. 2. 20. 2000. 2000.
                2. 1001. 20. 2000. 20. 20. 2000. 110. 110.
            </_>
            <_>
                2. 2000. 2000. 2000. 110. 2. 2. 110. 20. 2000. 2. 101. 1001. 200.
                20. 20. 2000. 2. 20. 200. 1001. 2000. 11. 2. 2. 200. 200. 1001.
                11. 110. 2. 1001. 200. 110. 110. 2000. 101. 110. 1001. 110. 1001.
                110. 110. 101. 110. 1100. 110. 110. 110. 20. 1001. 2. 2. 2000.
                2000. 2. 2. 200. 20. 200. 2000. 2. 20. 110. 20. 20. 2. 20. 2000.
                0. 2000. 200. 2. 20. 2000. 20. 200. 20. 200. 20. 20. 2. 2000. 20.
                20. 2. 2. 2. 200. 2. 20. 20. 2. 20. 20. 20. 2. 2. 101. 1010. 110.
                1001. 2. 20. 2000. 110. 20. 200. 200. 200. 2. 20. 2. 20. 2. 20.
                1001. 200. 20. 20. 1010. 2000. 1001. 110. 110. 110. 20. 200. 2.
                110. 20. 2000. 110. 1001. 2. 2000. 20. 2000. 2000. 200. 20. 2.
                200. 2000. 2. 2000. 20. 20. 20. 20. 2. 20. 20. 2. 20. 2. 2000. 20.
                20. 20. 20. 2000. 2. 2000. 200. 20. 200. 1010. 2000. 2000. 200.
                2000. 2. 20. 1001. 200. 2000. 2000. 20. 1010. 20. 20. 200. 2. 20.
                20. 200. 200. 200. 2. 2000. 11. 20. 2000. 1001. 110. 1001. 2000.
                1001. 1001. 20. 2. 1001. 110. 1010. 2. 1001. 101. 1001. 1001. 110.
                1001. 20. 1001. 1001. 1010. 20. 2. 20. 2000. 20. 20. 2. 110. 1010.
                20. 2. 20. 20. 2000. 2000. 1001. 1001. 1010. 11. 1010. 1001. 110.
                1010. 1100. 1001. 1001. 2. 2. 20. 110. 2000. 200. 2. 110. 20.
                1001. 2000. 2. 20. 20. 200. 2000. 200. 110. 11. 2000. 200. 2000.
                20. 2. 1001. 1001. 200. 200. 2000. 20. 1001. 20. 2. 20. 2. 2000.
                200. 20. 2. 20. 11. 110. 1100. 110. 110. 101. 101. 110. 110. 1010.
                1001. 1001. 110. 110. 101. 2. 2. 2000. 2000. 200. 200. 200. 20.
                20. 2000. 200. 2. 2. 1100. 110. 1001. 1001. 200. 2000. 11. 1001.
                110. 101. 1001. 110. 2. 1010. 20. 20. 11. 1001. 20. 200. 1010.
                1001. 110. 1001. 1001. 1001. 20. 20. 2000. 20. 11. 110. 1001. 2.
                200. 2. 20. 200. 1001. 1001. 1010. 1010. 1010. 20. 1001. 200.
                2000. 20. 2000. 2000. 2. 2. 200. 20. 2. 2000. 200. 200. 110. 11.
                110. 2. 1001. 1001. 110. 2. 110. 1010. 1001. 110. 20. 110. 110.
                110. 1001. 1001. 1001. 1001. 101. 110. 110. 1001. 1001. 110. 2.
                1001. 20. 2. 2. 1001. 101. 1100. 2. 2000. 2. 20. 200. 101. 110.
                110. 110. 1001. 110. 1001. 110. 11. 110. 20. 20. 110. 110. 1100.
                110. 2000. 110. 110. 2. 110. 200. 200. 2. 2. 101. 0. 1100. 2000.
                2000. 110. 1001. 2000. 2. 200. 110. 1001. 2. 2000. 2. 200. 20. 2.
                11. 101. 2000. 1001. 1010. 2. 20. 1001. 20. 2000. 200. 200. 20.
                200. 2. 1010. 2. 1010. 2. 2000. 2000. 20. 20. 200. 1001. 200. 2.
                2000. 2000. 2000. 2000. 110. 2000. 110. 11. 110. 20. 110. 2000.
                20. 20. 20. 200. 2000. 200. 110. 200. 1001. 1001. 101. 2000. 200.
                2. 200. 20. 2. 20. 2000. 2. 2000. 110. 101. 200. 200. 20. 200. 2.
                110. 2000. 1001. 20. 2. 110. 110. 1001. 2. 20. 1010. 20. 20. 2. 2.
                200. 2. 2. 2. 20. 2. 110. 1001. 0. 2000. 2. 101. 2000. 1001. 2000.
                1100. 20. 2000. 20. 2. 200. 200. 20. 20. 2. 101. 2. 2. 2000. 2.
                101. 1001. 110. 110. 200. 200. 1001. 1001. 20. 2000. 110. 11.
                1001. 20. 1001. 110. 1100. 2. 2000. 2000. 20. 2. 2. 11. 1010.
                1010. 110. 1001. 2. 1010. 1001. 200. 200. 2. 110. 2. 2000. 20.
                2000. 20. 20. 1001. 110. 2. 200. 2000. 20. 200. 200. 2000. 1010.
                110. 101. 1001. 20. 20. 2. 200. 200. 1100. 110. 110. 1001. 1001.
                101. 2. 11. 1001. 2000. 2. 20. 20. 110. 2000. 2. 110. 1001. 200.
                20. 2000. 200. 2000. 20. 2. 2. 2. 20. 20. 2000. 2000. 200. 20.
                1001. 20. 20. 2. 11. 110. 200. 2000. 11. 2. 110. 1001. 1100. 2.
                110. 2. 200. 1001. 110. 2000. 20. 2000. 200. 20. 11. 1001. 110.
                110. 1001. 1001. 200. 20. 2. 200. 2. 2. 20. 110. 2000. 110. 2000.
                2. 101. 1001. 1001. 20. 110. 20. 2. 2. 200. 2. 110. 1100. 11.
                1001. 20. 2000. 2000. 2. 2. 20. 1001. 11. 110. 1001. 20. 200.
            </_>
            <_>
                1001. 2000. 2000. 2000. 20. 2. 2. 110. 20. 2000. 2. 2. 1001. 200.
                110. 20. 2000. 2. 20. 200. 2. 1010. 2. 2. 2. 101. 110. 2. 11. 110.
                2. 2. 200. 20. 20. 2000. 2. 20. 2000. 20. 2000. 20. 200. 200. 110.
                2000. 110. 20. 200. 20. 1001. 2. 101. 2. 1100. 1001. 1001. 110.
                11. 110. 1001. 2. 11. 110. 110. 20. 2. 110. 1001. 0. 2000. 200. 2.
                20. 1010. 110. 110. 110. 200. 20. 20. 2. 1001. 2000. 200. 2000.
                2000. 2000. 20. 1001. 11. 20. 2. 20. 20. 20. 2. 2. 200. 1010. 20.
                1001. 1001. 110. 2000. 110. 110. 110. 20. 101. 2. 110. 1001. 110.
                1001. 20. 2000. 200. 20. 20. 1010. 1001. 2000. 20. 200. 200. 11.
                200. 2. 110. 20. 2000. 110. 1001. 2. 2000. 20. 2. 200. 20. 200.
                200. 2. 200. 2000. 2. 2000. 200. 200. 20. 2. 110. 110. 2. 20. 2.
                2000. 20. 20. 110. 20. 2000. 2. 2000. 200. 20. 200. 20. 1001.
                2000. 101. 2000. 2000. 11. 2. 101. 1010. 2000. 20. 2000. 200. 200.
                2000. 2000. 200. 20. 200. 200. 200. 2. 2000. 20. 20. 1001. 2. 20.
                1001. 2000. 2000. 2000. 1010. 2. 2. 200. 2000. 2. 1001. 200. 2000.
                2000. 200. 2. 110. 2000. 2000. 1010. 20. 1001. 20. 2000. 20. 20.
                2. 200. 1010. 20. 2. 20. 20. 2000. 2000. 2. 2. 20. 20. 2000. 2.
                200. 2000. 2000. 2. 2. 1001. 1001. 110. 110. 2000. 110. 2. 110.
                1010. 2. 2000. 101. 20. 20. 200. 1001. 101. 110. 20. 2000. 200.
                2000. 20. 2. 2000. 1001. 200. 2. 2. 200. 2000. 200. 1001. 110.
                1001. 200. 110. 110. 1001. 20. 11. 20. 1100. 110. 110. 101. 101.
                110. 200. 20. 2000. 2. 20. 110. 200. 2. 2. 200. 200. 200. 20. 20.
                20. 20. 1001. 200. 2. 2. 1100. 110. 1001. 1001. 2000. 2000. 2.
                2000. 20. 101. 1001. 200. 2. 1010. 20. 20. 20. 2. 200. 110. 20.
                1001. 20. 2. 2. 1001. 110. 110. 1001. 110. 2. 110. 1001. 1001.
                110. 2. 110. 20. 1001. 2000. 2000. 20. 20. 110. 2000. 110. 2000.
                20. 2000. 2000. 2. 2. 200. 20. 2. 2000. 200. 200. 200. 11. 110.
                11. 1001. 1001. 110. 2. 200. 2000. 2. 20. 200. 20. 20. 20. 2. 2.
                2. 2000. 2. 20. 20. 1001. 2000. 110. 2. 1001. 20. 2. 101. 1001. 2.
                200. 2. 2000. 2. 20. 200. 200. 200. 20. 20. 2000. 20. 2. 20. 2.
                110. 20. 20. 200. 200. 2000. 20. 2000. 110. 110. 2. 20. 20. 20.
                200. 2000. 2. 0. 1100. 2. 2. 20. 2000. 2000. 2. 200. 20. 2. 1001.
                1100. 2000. 200. 20. 2. 11. 101. 2000. 1001. 1010. 2. 20. 2. 20.
                1001. 110. 110. 110. 110. 2. 2000. 2. 1010. 1001. 1010. 2000. 20.
                110. 1100. 1001. 200. 2. 2000. 2000. 2000. 2000. 200. 2000. 20.
                20. 110. 2000. 110. 2. 2000. 20. 20. 200. 2000. 200. 110. 200.
                1001. 2. 101. 2000. 200. 1001. 2. 200. 11. 110. 1100. 101. 1001.
                20. 200. 200. 200. 20. 200. 101. 200. 2000. 2000. 200. 2000. 110.
                110. 1001. 2. 110. 1010. 20. 110. 2. 2. 200. 2. 20. 2000. 2. 11.
                110. 1001. 0. 2000. 2. 2. 2000. 1001. 2000. 2000. 20. 2000. 20. 2.
                200. 110. 110. 20. 2. 101. 2. 2. 2000. 2. 2. 2000. 20. 200. 110.
                200. 2. 2. 20. 2000. 200. 2. 2000. 2. 2. 200. 2000. 2. 1001. 1001.
                1010. 1001. 1001. 11. 1010. 1010. 110. 1001. 1001. 1010. 1001.
                200. 20. 2000. 20. 2. 1001. 110. 1001. 2. 20. 1001. 110. 2. 200.
